{"learner":{"attributes":{"scikit_learn":"{\"_estimator_type\": \"regressor\"}"},"feature_names":["time_bucket"],"feature_types":["int"],"gradient_booster":{"model":{"gbtree_model_param":{"num_parallel_tree":"1","num_trees":"100"},"iteration_indptr":[0,1,2,3,4,5,6,7,8,9,10,11,12,13,14,15,16,17,18,19,20,21,22,23,24,25,26,27,28,29,30,31,32,33,34,35,36,37,38,39,40,41,42,43,44,45,46,47,48,49,50,51,52,53,54,55,56,57,58,59,60,61,62,63,64,65,66,67,68,69,70,71,72,73,74,75,76,77,78,79,80,81,82,83,84,85,86,87,88,89,90,91,92,93,94,95,96,97,98,99,100],"tree_info":[0,0,0,0,0,0,0,0,0,0,0,0,0,0,0,0,0,0,0,0,0,0,0,0,0,0,0,0,0,0,0,0,0,0,0,0,0,0,0,0,0,0,0,0,0,0,0,0,0,0,0,0,0,0,0,0,0,0,0,0,0,0,0,0,0,0,0,0,0,0,0,0,0,0,0,0,0,0,0,0,0,0,0,0,0,0,0,0,0,0,0,0,0,0,0,0,0,0,0,0],"trees":[{"base_weights":[1.1585635E-5,-5.7278748E1,4.2688565E0,3.282983E1,-1.6660597E1,2.8217756E1,2.9445526E1,-2.063502E1,1.5095222E1,2.0956799E1,5.347026E1,-1.7397928E1,-5.6708942E1,1.5352529E1,-3.103644E0,3.0616741E1,-2.0888264E0,8.694207E1,3.0900066E1,-2.4864363E1,2.2068536E0,-1.4568866E1,-1.9472874E1,-1.2620435E0,-5.881183E-1,6.6557946E0,3.2067543E1,-1.071624E1,2.5766888E0,2.7578232E1,2.4528284E1,1.6942075E0,2.4853388E1,-1.4258998E1,-6.4828672E0,9.906157E0,-8.7358885E0],"categories":[],"categories_nodes":[],"categories_segments":[],"categories_sizes":[],"default_left":[0,0,0,0,0,0,0,0,0,0,0,0,0,0,0,0,0,0,0,0,0,0,0,0,0,0,0,0,0,0,0,0,0,0,0,0,0],"id":0,"left_children":[1,-1,3,5,7,-1,9,11,13,15,17,19,21,-1,23,25,27,29,31,33,35,-1,-1,-1,-1,-1,-1,-1,-1,-1,-1,-1,-1,-1,-1,-1,-1],"loss_changes":[6.261191E6,0E0,4.4921575E6,6.55771E5,5.4768875E5,0E0,6.1334875E5,4.491795E5,3.1730278E5,4.9606006E5,5.9110925E5,5.1808612E5,1.8024312E4,0E0,3.978579E2,1.0072275E6,2.3696366E5,6.4625E2,6.17362E5,1.8805125E5,9.440437E5,0E0,0E0,0E0,0E0,0E0,0E0,0E0,0E0,0E0,0E0,0E0,0E0,0E0,0E0,0E0,0E0],"parents":[2147483647,0,0,2,2,3,3,4,4,6,6,7,7,8,8,9,9,10,10,11,11,12,12,14,14,15,15,16,16,17,17,18,18,19,19,20,20],"right_children":[2,-1,4,6,8,-1,10,12,14,16,18,20,22,-1,24,26,28,30,32,34,36,-1,-1,-1,-1,-1,-1,-1,-1,-1,-1,-1,-1,-1,-1,-1,-1],"split_conditions":[2.02105E5,-5.7278748E1,2.02301E5,2.02106E5,2.02501E5,2.8217756E1,2.02208E5,2.02411E5,2.02502E5,2.02204E5,2.0221E5,2.02405E5,2.02412E5,1.5352529E1,2.02503E5,2.02203E5,2.02205E5,2.02209E5,2.02212E5,2.02303E5,2.02408E5,-1.4568866E1,-1.9472874E1,-1.2620435E0,-5.881183E-1,6.6557946E0,3.2067543E1,-1.071624E1,2.5766888E0,2.7578232E1,2.4528284E1,1.6942075E0,2.4853388E1,-1.4258998E1,-6.4828672E0,9.906157E0,-8.7358885E0],"split_indices":[0,0,0,0,0,0,0,0,0,0,0,0,0,0,0,0,0,0,0,0,0,0,0,0,0,0,0,0,0,0,0,0,0,0,0,0,0],"split_type":[0,0,0,0,0,0,0,0,0,0,0,0,0,0,0,0,0,0,0,0,0,0,0,0,0,0,0,0,0,0,0,0,0,0,0,0,0],"sum_hessian":[7.68E3,1.67E2,7.513E3,3.177E3,4.336E3,1.65E2,3.012E3,3.854E3,4.82E2,2.227E3,7.85E2,3.538E3,3.16E2,1.61E2,3.21E2,1.569E3,6.58E2,3.15E2,4.7E2,2.562E3,9.76E2,1.62E2,1.54E2,1.62E2,1.59E2,1.414E3,1.55E2,1.58E2,5E2,1.52E2,1.63E2,3.17E2,1.53E2,3.2E2,2.242E3,4.92E2,4.84E2],"tree_param":{"num_deleted":"0","num_feature":"1","num_nodes":"37","size_leaf_vector":"1"}},{"base_weights":[5.2284505E-3,-4.0197407E1,3.001159E0,2.302413E1,-1.1671658E1,1.9803425E1,2.0648123E1,-1.4458411E1,1.059461E1,-7.8940535E0,2.3117754E1,-1.218407E1,-3.980364E1,1.0775199E1,-2.1782925E0,2.5284744E1,1.948999E1,-1.7413136E1,1.546E0,-1.0225015E1,-1.3668701E1,-8.857481E-1,-4.1278824E-1,-1.2670237E1,7.0243254E0,-2.8399334E0,-7.066488E0,6.9403367E0,-6.120522E0],"categories":[],"categories_nodes":[],"categories_segments":[],"categories_sizes":[],"default_left":[0,0,0,0,0,0,0,0,0,0,0,0,0,0,0,0,0,0,0,0,0,0,0,0,0,0,0,0,0],"id":1,"left_children":[1,-1,3,5,7,-1,9,11,13,-1,15,17,19,-1,21,-1,23,25,27,-1,-1,-1,-1,-1,-1,-1,-1,-1,-1],"loss_changes":[3.0838968E6,0E0,2.2078322E6,3.2323212E5,2.6926662E5,0E0,3.5004988E5,2.2173162E5,1.5630198E5,0E0,6.3363175E5,2.5411088E5,8.8894375E3,0E0,1.9595288E2,0E0,6.559834E5,1.2486981E5,4.6339194E5,0E0,0E0,0E0,0E0,0E0,0E0,0E0,0E0,0E0,0E0],"parents":[2147483647,0,0,2,2,3,3,4,4,6,6,7,7,8,8,10,10,11,11,12,12,14,14,16,16,17,17,18,18],"right_children":[2,-1,4,6,8,-1,10,12,14,-1,16,18,20,-1,22,-1,24,26,28,-1,-1,-1,-1,-1,-1,-1,-1,-1,-1],"split_conditions":[2.02105E5,-4.0197407E1,2.02301E5,2.02106E5,2.02501E5,1.9803425E1,2.02107E5,2.02411E5,2.02502E5,-7.8940535E0,2.02108E5,2.02405E5,2.02412E5,1.0775199E1,2.02503E5,2.5284744E1,2.02109E5,2.02308E5,2.02408E5,-1.0225015E1,-1.3668701E1,-8.857481E-1,-4.1278824E-1,-1.2670237E1,7.0243254E0,-2.8399334E0,-7.066488E0,6.9403367E0,-6.120522E0],"split_indices":[0,0,0,0,0,0,0,0,0,0,0,0,0,0,0,0,0,0,0,0,0,0,0,0,0,0,0,0,0],"split_type":[0,0,0,0,0,0,0,0,0,0,0,0,0,0,0,0,0,0,0,0,0,0,0,0,0,0,0,0,0],"sum_hessian":[7.68E3,1.67E2,7.513E3,3.177E3,4.336E3,1.65E2,3.012E3,3.854E3,4.82E2,1.5E2,2.862E3,3.538E3,3.16E2,1.61E2,3.21E2,1.59E2,2.703E3,2.562E3,9.76E2,1.62E2,1.54E2,1.62E2,1.59E2,1.61E2,2.542E3,1.118E3,1.444E3,4.92E2,4.84E2],"tree_param":{"num_deleted":"0","num_feature":"1","num_nodes":"29","size_leaf_vector":"1"}},{"base_weights":[-5.245122E-4,-2.8209969E1,2.1018836E0,1.612682E1,-8.175577E0,1.1394542E1,3.0513859E1,-3.0484318E1,-6.390842E0,2.3281534E1,-2.0016391E0,5.402224E1,1.4676999E1,-4.880064E0,-1.3569613E1,-8.278225E0,7.435841E0,1.7745188E1,3.9559334E1,-2.324603E1,6.169732E0,1.726531E1,1.5120218E1,-3.0437584E0,1.5352172E1,-4.9267597E0,-1.9711407E1,7.5625916E0,-1.528844E0,1.3898185E1,3.4988925E0,1.251259E1,1.1105601E1,2.1259153E0,-1.6263374E1,2.041516E1,-2.546459E0,1.6809237E-1,-1.9685289E0,-2.5793877E0,1.6263103E1,-1.6602377E1,-2.985782E0,-6.216556E-1,-2.89728E-1],"categories":[],"categories_nodes":[],"categories_segments":[],"categories_sizes":[],"default_left":[0,0,0,0,0,0,0,0,0,0,0,0,0,0,0,0,0,0,0,0,0,0,0,0,0,0,0,0,0,0,0,0,0,0,0,0,0,0,0,0,0,0,0,0,0],"id":2,"left_children":[1,-1,3,5,7,9,11,13,15,17,19,21,23,-1,-1,25,27,29,31,33,35,-1,-1,37,-1,39,41,-1,43,-1,-1,-1,-1,-1,-1,-1,-1,-1,-1,-1,-1,-1,-1,-1,-1],"loss_changes":[1.5186938E6,0E0,1.0832052E6,2.160215E5,1.7248369E5,3.811086E5,2.9183406E5,6.656984E4,1.0489016E5,1.13569625E5,1.9561228E5,1.1378125E3,3.0477634E5,0E0,0E0,1.3535672E5,7.6993734E4,1.6426228E5,2.0884375E2,2.9436928E5,7.389117E5,0E0,0E0,4.0356367E3,0E0,5.942458E5,2.779605E5,0E0,9.651361E1,0E0,0E0,0E0,0E0,0E0,0E0,0E0,0E0,0E0,0E0,0E0,0E0,0E0,0E0,0E0,0E0],"parents":[2147483647,0,0,2,2,3,3,4,4,5,5,6,6,7,7,8,8,9,9,10,10,11,11,12,12,15,15,16,16,17,17,18,18,19,19,20,20,23,23,25,25,26,26,28,28],"right_children":[2,-1,4,6,8,10,12,14,16,18,20,22,24,-1,-1,26,28,30,32,34,36,-1,-1,38,-1,40,42,-1,44,-1,-1,-1,-1,-1,-1,-1,-1,-1,-1,-1,-1,-1,-1,-1,-1],"split_conditions":[2.02105E5,-2.8209969E1,2.02301E5,2.02208E5,2.02303E5,2.02201E5,2.0221E5,2.02302E5,2.02501E5,2.02111E5,2.02203E5,2.02209E5,2.02212E5,-4.880064E0,-1.3569613E1,2.02408E5,2.02502E5,2.02106E5,2.02112E5,2.02202E5,2.02204E5,1.726531E1,1.5120218E1,2.02211E5,1.5352172E1,2.02407E5,2.02409E5,7.5625916E0,2.02503E5,1.3898185E1,3.4988925E0,1.251259E1,1.1105601E1,2.1259153E0,-1.6263374E1,2.041516E1,-2.546459E0,1.6809237E-1,-1.9685289E0,-2.5793877E0,1.6263103E1,-1.6602377E1,-2.985782E0,-6.216556E-1,-2.89728E-1],"split_indices":[0,0,0,0,0,0,0,0,0,0,0,0,0,0,0,0,0,0,0,0,0,0,0,0,0,0,0,0,0,0,0,0,0,0,0,0,0,0,0,0,0,0,0,0,0],"split_type":[0,0,0,0,0,0,0,0,0,0,0,0,0,0,0,0,0,0,0,0,0,0,0,0,0,0,0,0,0,0,0,0,0,0,0,0,0,0,0,0,0,0,0,0,0],"sum_hessian":[7.68E3,1.67E2,7.513E3,3.177E3,4.336E3,2.392E3,7.85E2,3.2E2,4.016E3,1.267E3,1.125E3,3.15E2,4.7E2,1.64E2,1.56E2,3.534E3,4.82E2,9.47E2,3.2E2,3.12E2,8.13E2,1.52E2,1.63E2,3.17E2,1.53E2,2.734E3,8E2,1.61E2,3.21E2,1.65E2,7.82E2,1.65E2,1.55E2,1.58E2,1.54E2,1.55E2,6.58E2,1.57E2,1.6E2,2.575E3,1.59E2,1.71E2,6.29E2,1.62E2,1.59E2],"tree_param":{"num_deleted":"0","num_feature":"1","num_nodes":"45","size_leaf_vector":"1"}},{"base_weights":[5.456668E-3,-1.979735E1,1.4810259E0,1.1317304E1,-5.7269917E0,7.994872E0,2.1418146E1,-2.1396503E1,-4.473409E0,1.6329412E1,-1.3978386E0,3.7918053E1,1.0302671E1,-3.4249187E0,-9.52466E0,5.539308E0,-6.9573135E0,8.846397E0,2.3822094E1,-1.631739E1,4.3407583E0,1.2119567E1,1.06118145E1,-2.1362898E0,1.0776425E1,-5.882974E0,2.221637E1,-1.5567456E1,-4.5436463E0,6.942096E0,-9.935822E0,1.214188E1,5.5290966E0,1.4921514E0,-1.141584E1,1.4329871E1,-1.7836823E0,1.1798381E-1,-1.3816365E0,-2.7116044E0,6.385478E-2,8.468326E0,4.6074286E0,-1.9121319E0,1.5656563E0],"categories":[],"categories_nodes":[],"categories_segments":[],"categories_sizes":[],"default_left":[0,0,0,0,0,0,0,0,0,0,0,0,0,0,0,0,0,0,0,0,0,0,0,0,0,0,0,0,0,0,0,0,0,0,0,0,0,0,0,0,0,0,0,0,0],"id":3,"left_children":[1,-1,3,5,7,9,11,13,15,17,19,21,23,-1,-1,25,27,29,31,33,35,-1,-1,37,-1,39,41,-1,43,-1,-1,-1,-1,-1,-1,-1,-1,-1,-1,-1,-1,-1,-1,-1,-1],"loss_changes":[7.480934E5,0E0,5.328079E5,1.0648041E5,8.509606E4,1.8735625E5,1.437651E5,3.2802516E4,9.9943875E4,7.088331E4,9.6475914E4,5.6609375E2,1.501706E5,0E0,0E0,1.5233228E5,3.4888475E5,3.8227475E5,5.608325E4,1.450374E5,3.6388994E5,0E0,0E0,1.9880151E3,0E0,9.139324E3,1.2965453E4,0E0,5.4633613E4,0E0,0E0,0E0,0E0,0E0,0E0,0E0,0E0,0E0,0E0,0E0,0E0,0E0,0E0,0E0,0E0],"parents":[2147483647,0,0,2,2,3,3,4,4,5,5,6,6,7,7,8,8,9,9,10,10,11,11,12,12,15,15,16,16,17,17,18,18,19,19,20,20,23,23,25,25,26,26,28,28],"right_children":[2,-1,4,6,8,10,12,14,16,18,20,22,24,-1,-1,26,28,30,32,34,36,-1,-1,38,-1,40,42,-1,44,-1,-1,-1,-1,-1,-1,-1,-1,-1,-1,-1,-1,-1,-1,-1,-1],"split_conditions":[2.02105E5,-1.979735E1,2.02301E5,2.02208E5,2.02303E5,2.02201E5,2.0221E5,2.02302E5,2.02308E5,2.02109E5,2.02203E5,2.02209E5,2.02212E5,-3.4249187E0,-9.52466E0,2.02306E5,2.02309E5,2.02108E5,2.0211E5,2.02202E5,2.02204E5,1.2119567E1,1.06118145E1,2.02211E5,1.0776425E1,2.02305E5,2.02307E5,-1.5567456E1,2.02501E5,6.942096E0,-9.935822E0,1.214188E1,5.5290966E0,1.4921514E0,-1.141584E1,1.4329871E1,-1.7836823E0,1.1798381E-1,-1.3816365E0,-2.7116044E0,6.385478E-2,8.468326E0,4.6074286E0,-1.9121319E0,1.5656563E0],"split_indices":[0,0,0,0,0,0,0,0,0,0,0,0,0,0,0,0,0,0,0,0,0,0,0,0,0,0,0,0,0,0,0,0,0,0,0,0,0,0,0,0,0,0,0,0,0],"split_type":[0,0,0,0,0,0,0,0,0,0,0,0,0,0,0,0,0,0,0,0,0,0,0,0,0,0,0,0,0,0,0,0,0,0,0,0,0,0,0,0,0,0,0,0,0],"sum_hessian":[7.68E3,1.67E2,7.513E3,3.177E3,4.336E3,2.392E3,7.85E2,3.2E2,4.016E3,1.267E3,1.125E3,3.15E2,4.7E2,1.64E2,1.56E2,7.98E2,3.218E3,6.35E2,6.32E2,3.12E2,8.13E2,1.52E2,1.63E2,3.17E2,1.53E2,4.74E2,3.24E2,1.63E2,3.055E3,4.74E2,1.61E2,1.53E2,4.79E2,1.58E2,1.54E2,1.55E2,6.58E2,1.57E2,1.6E2,3.12E2,1.62E2,1.71E2,1.53E2,2.573E3,4.82E2],"tree_param":{"num_deleted":"0","num_feature":"1","num_nodes":"45","size_leaf_vector":"1"}},{"base_weights":[5.2970327E-3,-1.3893497E1,1.040863E0,7.9377027E0,-4.013137E0,7.6837573E0,6.9612813E0,-1.5017888E1,-3.1327438E0,-8.653082E0,8.847267E0,-2.4036667E0,-6.6854625E0,3.8905737E0,-4.8750544E0,1.4634E1,6.481111E0,-4.1236486E0,1.5591697E1,-1.0925699E1,-3.1806562E0,-6.9734735E0,2.5116713E0,8.908064E-1,-2.2705805E0,5.9425993E0,3.2341778E0,-3.1109183E0,-3.781991E-1],"categories":[],"categories_nodes":[],"categories_segments":[],"categories_sizes":[],"default_left":[0,0,0,0,0,0,0,0,0,0,0,0,0,0,0,0,0,0,0,0,0,0,0,0,0,0,0,0,0],"id":4,"left_children":[1,-1,3,5,7,-1,9,11,13,-1,15,-1,-1,17,19,-1,21,23,25,-1,27,-1,-1,-1,-1,-1,-1,-1,-1],"loss_changes":[3.6846172E5,0E0,2.6194455E5,5.466786E4,4.1972008E4,0E0,2.0371553E5,1.6163578E4,4.91742E4,0E0,2.702003E5,0E0,0E0,7.499084E4,1.7193325E5,0E0,1.522018E5,1.1629127E4,6.380133E3,0E0,4.216878E4,0E0,0E0,0E0,0E0,0E0,0E0,0E0,0E0],"parents":[2147483647,0,0,2,2,3,3,4,4,6,6,7,7,8,8,10,10,13,13,14,14,16,16,17,17,18,18,20,20],"right_children":[2,-1,4,6,8,-1,10,12,14,-1,16,-1,-1,18,20,-1,22,24,26,-1,28,-1,-1,-1,-1,-1,-1,-1,-1],"split_conditions":[2.02105E5,-1.3893497E1,2.02301E5,2.02106E5,2.02303E5,7.6837573E0,2.02107E5,2.02302E5,2.02308E5,-8.653082E0,2.02108E5,-2.4036667E0,-6.6854625E0,2.02306E5,2.02309E5,1.4634E1,2.02109E5,2.02304E5,2.02307E5,-1.0925699E1,2.02401E5,-6.9734735E0,2.5116713E0,8.908064E-1,-2.2705805E0,5.9425993E0,3.2341778E0,-3.1109183E0,-3.781991E-1],"split_indices":[0,0,0,0,0,0,0,0,0,0,0,0,0,0,0,0,0,0,0,0,0,0,0,0,0,0,0,0,0],"split_type":[0,0,0,0,0,0,0,0,0,0,0,0,0,0,0,0,0,0,0,0,0,0,0,0,0,0,0,0,0],"sum_hessian":[7.68E3,1.67E2,7.513E3,3.177E3,4.336E3,1.65E2,3.012E3,3.2E2,4.016E3,1.5E2,2.862E3,1.64E2,1.56E2,7.98E2,3.218E3,1.59E2,2.703E3,4.74E2,3.24E2,1.63E2,3.055E3,1.61E2,2.542E3,1.55E2,3.19E2,1.71E2,1.53E2,6.43E2,2.412E3],"tree_param":{"num_deleted":"0","num_feature":"1","num_nodes":"29","size_leaf_vector":"1"}},{"base_weights":[1.0577315E-3,-9.750259E0,7.2774416E-1,5.5592995E0,-2.8128164E0,2.8832977E0,1.17022295E1,-3.6699207E0,4.033872E0,7.0430903E0,-1.2127354E1,1.8330217E1,4.725737E0,-1.9662268E0,-2.2678448E1,4.953785E0,-2.2567804E0,4.670041E0,9.309801E0,-9.073516E0,-3.1711903E0,2.4068675E0,2.4110853E1,-4.0031414E0,6.815886E0,-3.4489E0,8.872177E0,-5.603206E0,-8.021921E0,-7.9035443E-1,-5.5735767E-1,2.5046859E0,-8.76182E0,-2.8977032E0,1.0744194E0,7.758886E0,6.698777E0,-6.6591394E-1,-1.7185425E0,-4.8196858E-1,-6.195123E0],"categories":[],"categories_nodes":[],"categories_segments":[],"categories_sizes":[],"default_left":[0,0,0,0,0,0,0,0,0,0,0,0,0,0,0,0,0,0,0,0,0,0,0,0,0,0,0,0,0,0,0,0,0,0,0,0,0,0,0,0,0],"id":5,"left_children":[1,-1,3,5,7,9,11,13,15,17,19,21,23,25,27,-1,29,31,-1,-1,33,-1,35,37,-1,39,-1,-1,-1,-1,-1,-1,-1,-1,-1,-1,-1,-1,-1,-1,-1],"loss_changes":[1.814389E5,0E0,1.2855322E5,5.220779E4,2.5465742E4,1.3839267E5,4.4488844E4,1.2479846E5,3.7952492E4,9.862593E4,7.7953586E4,2.92405E4,7.4069234E4,1.6559884E5,4.651703E3,0E0,4.3626343E1,1.9715477E5,0E0,0E0,1.4185088E4,0E0,4.0892188E2,9.6577344E2,0E0,1.0711409E5,0E0,0E0,0E0,0E0,0E0,0E0,0E0,0E0,0E0,0E0,0E0,0E0,0E0,0E0,0E0],"parents":[2147483647,0,0,2,2,3,3,4,4,5,5,6,6,7,7,8,8,9,9,10,10,11,11,12,12,13,13,14,14,16,16,17,17,20,20,22,22,23,23,25,25],"right_children":[2,-1,4,6,8,10,12,14,16,18,20,22,24,26,28,-1,30,32,-1,-1,34,-1,36,38,-1,40,-1,-1,-1,-1,-1,-1,-1,-1,-1,-1,-1,-1,-1,-1,-1],"split_conditions":[2.02105E5,-9.750259E0,2.02301E5,2.02207E5,2.02501E5,2.02204E5,2.0221E5,2.02411E5,2.02502E5,2.02203E5,2.02205E5,2.02208E5,2.02212E5,2.0241E5,2.02412E5,4.953785E0,2.02503E5,2.02202E5,9.309801E0,-9.073516E0,2.02206E5,2.4068675E0,2.02209E5,2.02211E5,6.815886E0,2.02408E5,8.872177E0,-5.603206E0,-8.021921E0,-7.9035443E-1,-5.5735767E-1,2.5046859E0,-8.76182E0,-2.8977032E0,1.0744194E0,7.758886E0,6.698777E0,-6.6591394E-1,-1.7185425E0,-4.8196858E-1,-6.195123E0],"split_indices":[0,0,0,0,0,0,0,0,0,0,0,0,0,0,0,0,0,0,0,0,0,0,0,0,0,0,0,0,0,0,0,0,0,0,0,0,0,0,0,0,0],"split_type":[0,0,0,0,0,0,0,0,0,0,0,0,0,0,0,0,0,0,0,0,0,0,0,0,0,0,0,0,0,0,0,0,0,0,0,0,0,0,0,0,0],"sum_hessian":[7.68E3,1.67E2,7.513E3,3.177E3,4.336E3,2.214E3,9.63E2,3.854E3,4.82E2,1.734E3,4.8E2,4.93E2,4.7E2,3.538E3,3.16E2,1.61E2,3.21E2,1.579E3,1.55E2,1.58E2,3.22E2,1.78E2,3.15E2,3.17E2,1.53E2,3.38E3,1.58E2,1.62E2,1.54E2,1.62E2,1.59E2,1.425E3,1.54E2,1.64E2,1.58E2,1.52E2,1.63E2,1.57E2,1.6E2,3.054E3,3.26E2],"tree_param":{"num_deleted":"0","num_feature":"1","num_nodes":"41","size_leaf_vector":"1"}},{"base_weights":[1.9900393E-4,-6.842592E0,5.10165E-1,3.8957348E0,-1.9707783E0,2.0147555E0,8.213654E0,-4.316756E0,1.4177912E0,4.931908E0,-8.511803E0,1.2865292E1,3.3174264E0,-5.9740734E-1,-1.2453244E1,9.423343E0,-1.6755716E0,3.265054E0,6.53476E0,-6.368579E0,-2.2254808E0,1.6888431E0,1.6923347E1,-2.8096967E0,4.784399E0,-4.261178E0,1.622294E1,-1.4621735E1,-3.00738E0,-7.3050036E0,9.829972E-1,1.7538024E0,-6.150236E0,-2.0336587E0,7.5411713E-1,5.446435E0,4.701395E0,-4.674017E-1,-1.2061837E0,-1.7720795E-1,-5.031108E0,5.630358E0,4.1476765E0,4.0570024E-1,-4.6314254E0,1.2241163E1,-1.1951219E0],"categories":[],"categories_nodes":[],"categories_segments":[],"categories_sizes":[],"default_left":[0,0,0,0,0,0,0,0,0,0,0,0,0,0,0,0,0,0,0,0,0,0,0,0,0,0,0,0,0,0,0,0,0,0,0,0,0,0,0,0,0,0,0,0,0,0,0],"id":6,"left_children":[1,-1,3,5,7,9,11,13,15,17,19,21,23,25,27,-1,29,31,-1,-1,33,-1,35,37,-1,39,41,-1,43,-1,45,-1,-1,-1,-1,-1,-1,-1,-1,-1,-1,-1,-1,-1,-1,-1,-1],"loss_changes":[8.935496E4,0E0,6.3120824E4,2.5794902E4,3.4483137E4,6.805925E4,2.1912883E4,7.755519E4,1.647377E5,4.866074E4,3.8404785E4,1.4410227E4,3.6495055E4,1.0853071E5,2.7542553E5,0E0,9.707724E4,9.703473E4,0E0,0E0,6.987189E3,0E0,2.0269531E2,4.7572607E2,0E0,6.6382836E4,1.6623672E3,0E0,3.4651047E4,0E0,2.8536103E5,0E0,0E0,0E0,0E0,0E0,0E0,0E0,0E0,0E0,0E0,0E0,0E0,0E0,0E0,0E0,0E0],"parents":[2147483647,0,0,2,2,3,3,4,4,5,5,6,6,7,7,8,8,9,9,10,10,11,11,12,12,13,13,14,14,16,16,17,17,20,20,22,22,23,23,25,25,26,26,28,28,30,30],"right_children":[2,-1,4,6,8,10,12,14,16,18,20,22,24,26,28,-1,30,32,-1,-1,34,-1,36,38,-1,40,42,-1,44,-1,46,-1,-1,-1,-1,-1,-1,-1,-1,-1,-1,-1,-1,-1,-1,-1,-1],"split_conditions":[2.02105E5,-6.842592E0,2.02301E5,2.02207E5,2.02405E5,2.02204E5,2.0221E5,2.02312E5,2.02406E5,2.02203E5,2.02205E5,2.02208E5,2.02212E5,2.0231E5,2.02401E5,9.423343E0,2.02407E5,2.02202E5,6.53476E0,-6.368579E0,2.02206E5,1.6888431E0,2.02209E5,2.02211E5,4.784399E0,2.02308E5,2.02311E5,-1.4621735E1,2.02404E5,-7.3050036E0,2.02408E5,1.7538024E0,-6.150236E0,-2.0336587E0,7.5411713E-1,5.446435E0,4.701395E0,-4.674017E-1,-1.2061837E0,-1.7720795E-1,-5.031108E0,5.630358E0,4.1476765E0,4.0570024E-1,-4.6314254E0,1.2241163E1,-1.1951219E0],"split_indices":[0,0,0,0,0,0,0,0,0,0,0,0,0,0,0,0,0,0,0,0,0,0,0,0,0,0,0,0,0,0,0,0,0,0,0,0,0,0,0,0,0,0,0,0,0,0,0],"split_type":[0,0,0,0,0,0,0,0,0,0,0,0,0,0,0,0,0,0,0,0,0,0,0,0,0,0,0,0,0,0,0,0,0,0,0,0,0,0,0,0,0,0,0,0,0,0,0],"sum_hessian":[7.68E3,1.67E2,7.513E3,3.177E3,4.336E3,2.214E3,9.63E2,2.562E3,1.774E3,1.734E3,4.8E2,4.93E2,4.7E2,1.759E3,8.03E2,1.65E2,1.609E3,1.579E3,1.55E2,1.58E2,3.22E2,1.78E2,3.15E2,3.17E2,1.53E2,1.445E3,3.14E2,1.65E2,6.38E2,1.68E2,1.441E3,1.425E3,1.54E2,1.64E2,1.58E2,1.52E2,1.63E2,1.57E2,1.6E2,1.118E3,3.27E2,1.49E2,1.65E2,4.73E2,1.65E2,1.59E2,1.282E3],"tree_param":{"num_deleted":"0","num_feature":"1","num_nodes":"47","size_leaf_vector":"1"}},{"base_weights":[3.3226257E-4,-4.802035E0,3.5822353E-1,5.009328E0,-5.85903E-1,1.4504108E0,1.55041685E1,-8.770265E0,-1.5417743E-1,4.304965E0,-3.7905524E0,5.1138754E0,4.1291547E0,-9.709572E-1,-4.317069E0,4.5868998E0,-5.709742E-1,9.0139404E-2,6.5051084E0,-4.4700174E0,-1.6562106E-1,2.13846E0,-6.164012E0,1.1787858E0,-4.1393936E-1],"categories":[],"categories_nodes":[],"categories_segments":[],"categories_sizes":[],"default_left":[0,0,0,0,0,0,0,0,0,0,0,0,0,0,0,0,0,0,0,0,0,0,0,0,0],"id":7,"left_children":[1,-1,3,5,7,9,11,13,15,17,-1,-1,-1,-1,-1,-1,19,21,-1,-1,23,-1,-1,-1,-1],"loss_changes":[4.4008695E4,0E0,3.2998645E4,4.733765E4,2.2071787E4,3.8171637E4,6.2685156E2,9.687549E3,3.8211992E4,5.7790953E4,0E0,0E0,0E0,0E0,0E0,0E0,3.356973E4,9.252123E4,0E0,0E0,2.7957672E4,0E0,0E0,0E0,0E0],"parents":[2147483647,0,0,2,2,3,3,4,4,5,5,6,6,7,7,8,8,9,9,16,16,17,17,20,20],"right_children":[2,-1,4,6,8,10,12,14,16,18,-1,-1,-1,-1,-1,-1,20,22,-1,-1,24,-1,-1,-1,-1],"split_conditions":[2.02105E5,-4.802035E0,2.02201E5,2.02111E5,2.02203E5,2.0211E5,2.02112E5,2.02202E5,2.02204E5,2.02109E5,-3.7905524E0,5.1138754E0,4.1291547E0,-9.709572E-1,-4.317069E0,4.5868998E0,2.02205E5,2.02108E5,6.5051084E0,-4.4700174E0,2.02301E5,2.13846E0,-6.164012E0,1.1787858E0,-4.1393936E-1],"split_indices":[0,0,0,0,0,0,0,0,0,0,0,0,0,0,0,0,0,0,0,0,0,0,0,0,0],"split_type":[0,0,0,0,0,0,0,0,0,0,0,0,0,0,0,0,0,0,0,0,0,0,0,0,0],"sum_hessian":[7.68E3,1.67E2,7.513E3,1.267E3,6.246E3,9.47E2,3.2E2,3.12E2,5.934E3,7.88E2,1.59E2,1.65E2,1.55E2,1.58E2,1.54E2,1.55E2,5.779E3,6.35E2,1.53E2,1.58E2,5.621E3,4.74E2,1.61E2,1.285E3,4.336E3],"tree_param":{"num_deleted":"0","num_feature":"1","num_nodes":"25","size_leaf_vector":"1"}},{"base_weights":[6.953566E-5,-8.231489E0,5.523466E-1,1.2360416E-1,-7.980734E0,8.364139E0,-6.882536E-2,-3.3699992E0,3.4849873E0,-4.3262267E0,2.6917166E-1,4.5662537E0,-7.320521E-2,-2.6604924E0,1.4109197E-1,3.2645166E0,-1.2325028E-1],"categories":[],"categories_nodes":[],"categories_segments":[],"categories_sizes":[],"default_left":[0,0,0,0,0,0,0,0,0,0,0,0,0,0,0,0,0],"id":8,"left_children":[1,3,5,7,-1,-1,9,-1,-1,-1,11,-1,13,-1,15,-1,-1],"loss_changes":[3.492315E4,7.413946E4,1.2220824E5,4.3595477E4,0E0,0E0,3.4154285E4,0E0,0E0,0E0,3.5215453E4,0E0,1.2678185E4,0E0,3.8933875E4,0E0,0E0],"parents":[2147483647,0,0,1,1,2,2,3,3,6,6,10,10,12,12,14,14],"right_children":[2,4,6,8,-1,-1,10,-1,-1,-1,12,-1,14,-1,16,-1,-1],"split_conditions":[2.02107E5,2.02106E5,2.02108E5,2.02105E5,-7.980734E0,8.364139E0,2.02109E5,-3.3699992E0,3.4849873E0,-4.3262267E0,2.0211E5,4.5662537E0,2.02111E5,-2.6604924E0,2.02201E5,3.2645166E0,-1.2325028E-1],"split_indices":[0,0,0,0,0,0,0,0,0,0,0,0,0,0,0,0,0],"split_type":[0,0,0,0,0,0,0,0,0,0,0,0,0,0,0,0,0],"sum_hessian":[7.68E3,4.82E2,7.198E3,3.32E2,1.5E2,1.59E2,7.039E3,1.67E2,1.65E2,1.61E2,6.878E3,1.53E2,6.725E3,1.59E2,6.566E3,3.2E2,6.246E3],"tree_param":{"num_deleted":"0","num_feature":"1","num_nodes":"17","size_leaf_vector":"1"}},{"base_weights":[2.1604069E-4,-5.778324E0,3.879136E-1,8.686686E-2,-5.6023655E0,5.8705807E0,-4.8066203E-2,-2.3650184E0,2.4457896E0,-3.0363674E0,1.89163E-1,3.2052715E0,-5.11627E-2,-4.0784085E-1,4.5599127E0,9.878535E-2,-4.2573094E0,3.993312E0,4.2903375E-2],"categories":[],"categories_nodes":[],"categories_segments":[],"categories_sizes":[],"default_left":[0,0,0,0,0,0,0,0,0,0,0,0,0,0,0,0,0,0,0],"id":9,"left_children":[1,3,5,7,-1,-1,9,-1,-1,-1,11,-1,13,15,17,-1,-1,-1,-1],"loss_changes":[1.7210186E4,3.6535184E4,6.0201805E4,2.1471592E4,0E0,0E0,1.6825031E4,0E0,0E0,0E0,1.735101E4,0E0,1.1063909E4,6.344333E4,1.866743E4,0E0,0E0,0E0,0E0],"parents":[2147483647,0,0,1,1,2,2,3,3,6,6,10,10,12,12,13,13,14,14],"right_children":[2,4,6,8,-1,-1,10,-1,-1,-1,12,-1,14,16,18,-1,-1,-1,-1],"split_conditions":[2.02107E5,2.02106E5,2.02108E5,2.02105E5,-5.6023655E0,5.8705807E0,2.02109E5,-2.3650184E0,2.4457896E0,-3.0363674E0,2.0211E5,3.2052715E0,2.02501E5,2.02411E5,2.02502E5,9.878535E-2,-4.2573094E0,3.993312E0,4.2903375E-2],"split_indices":[0,0,0,0,0,0,0,0,0,0,0,0,0,0,0,0,0,0,0],"split_type":[0,0,0,0,0,0,0,0,0,0,0,0,0,0,0,0,0,0,0],"sum_hessian":[7.68E3,4.82E2,7.198E3,3.32E2,1.5E2,1.59E2,7.039E3,1.67E2,1.65E2,1.61E2,6.878E3,1.53E2,6.725E3,6.243E3,4.82E2,5.927E3,3.16E2,1.61E2,3.21E2],"tree_param":{"num_deleted":"0","num_feature":"1","num_nodes":"19","size_leaf_vector":"1"}},{"base_weights":[2.0352534E-4,-4.0562634E0,2.7236262E-1,6.104808E-2,-3.93279E0,4.120417E0,-3.3638798E-2,-1.6597353E0,1.7164713E0,-6.7542595E-1,1.870409E0,6.987875E-1,-8.302838E0,6.7441015E0,-2.5575155E-1,-1.460376E-1,1.1824122E1,-1.0130905E1,-1.674044E0,-4.995729E0,1.666089E0,2.438177E-1,-3.395257E0,4.0831566E0,3.0416033E0,4.154949E-1,-3.1196315E0,8.722472E0,-5.259902E-1],"categories":[],"categories_nodes":[],"categories_segments":[],"categories_sizes":[],"default_left":[0,0,0,0,0,0,0,0,0,0,0,0,0,0,0,0,0,0,0,0,0,0,0,0,0,0,0,0,0],"id":10,"left_children":[1,3,5,7,-1,-1,9,-1,-1,11,13,15,17,-1,19,21,23,-1,25,-1,27,-1,-1,-1,-1,-1,-1,-1,-1],"loss_changes":[8.480963E3,1.8004223E4,2.9656754E4,1.0575143E4,0E0,0E0,8.604098E3,0E0,0E0,5.520239E4,7.778627E4,4.1949293E4,1.3567031E5,0E0,5.0761746E4,4.4448348E4,8.104375E2,0E0,1.7068787E4,0E0,1.3519727E5,0E0,0E0,0E0,0E0,0E0,0E0,0E0,0E0],"parents":[2147483647,0,0,1,1,2,2,3,3,6,6,9,9,10,10,11,11,12,12,14,14,15,15,16,16,18,18,20,20],"right_children":[2,4,6,8,-1,-1,10,-1,-1,12,14,16,18,-1,20,22,24,-1,26,-1,28,-1,-1,-1,-1,-1,-1,-1,-1],"split_conditions":[2.02107E5,2.02106E5,2.02108E5,2.02105E5,-3.93279E0,4.120417E0,2.02405E5,-1.6597353E0,1.7164713E0,2.02312E5,2.02406E5,2.0231E5,2.02401E5,6.7441015E0,2.02407E5,2.02308E5,2.02311E5,-1.0130905E1,2.02404E5,-4.995729E0,2.02408E5,2.438177E-1,-3.395257E0,4.0831566E0,3.0416033E0,4.154949E-1,-3.1196315E0,8.722472E0,-5.259902E-1],"split_indices":[0,0,0,0,0,0,0,0,0,0,0,0,0,0,0,0,0,0,0,0,0,0,0,0,0,0,0,0,0],"split_type":[0,0,0,0,0,0,0,0,0,0,0,0,0,0,0,0,0,0,0,0,0,0,0,0,0,0,0,0,0],"sum_hessian":[7.68E3,4.82E2,7.198E3,3.32E2,1.5E2,1.59E2,7.039E3,1.67E2,1.65E2,5.265E3,1.774E3,4.462E3,8.03E2,1.65E2,1.609E3,4.148E3,3.14E2,1.65E2,6.38E2,1.68E2,1.441E3,3.821E3,3.27E2,1.49E2,1.65E2,4.73E2,1.65E2,1.59E2,1.282E3],"tree_param":{"num_deleted":"0","num_feature":"1","num_nodes":"29","size_leaf_vector":"1"}},{"base_weights":[3.235078E-4,-4.9950543E-1,2.9534492E0,2.4654432E-1,-8.475677E0,1.4242004E1,-1.4865503E0,-2.7042872E-1,6.122086E0,1.5967859E0,6.871058E0,-9.422792E0,3.7252E0,4.7348954E-2,-3.5058782E0,-1.9898499E0,-3.6887877E0,2.9595363E0,6.246025E-1,-3.9469367E-1,4.7330575E0,1.0584592E-1,2.6927325E-1,1.3837501E-1,-1.7483865E0],"categories":[],"categories_nodes":[],"categories_segments":[],"categories_sizes":[],"default_left":[0,0,0,0,0,0,0,0,0,0,0,0,0,0,0,0,0,0,0,0,0,0,0,0,0],"id":11,"left_children":[1,3,5,7,-1,9,11,13,-1,-1,-1,15,17,19,-1,-1,-1,-1,21,23,-1,-1,-1,-1,-1],"loss_changes":[1.1339074E4,1.3603836E5,5.575592E4,6.669837E4,0E0,2.4136309E4,3.308311E4,2.2637379E4,0E0,0E0,0E0,2.4595215E3,9.188914E3,4.222553E4,0E0,0E0,0E0,0E0,2.3572456E1,2.7473582E4,0E0,0E0,0E0,0E0,0E0],"parents":[2147483647,0,0,1,1,2,2,3,3,5,5,6,6,7,7,11,11,12,12,13,13,18,18,19,19],"right_children":[2,4,6,8,-1,10,12,14,-1,-1,-1,16,18,20,-1,-1,-1,-1,22,24,-1,-1,-1,-1,-1],"split_conditions":[2.02409E5,2.02408E5,2.02411E5,2.02407E5,-8.475677E0,2.0241E5,2.02501E5,2.02406E5,6.122086E0,1.5967859E0,6.871058E0,2.02412E5,2.02502E5,2.02405E5,-3.5058782E0,-1.9898499E0,-3.6887877E0,2.9595363E0,2.02503E5,2.02312E5,4.7330575E0,1.0584592E-1,2.6927325E-1,1.3837501E-1,-1.7483865E0],"split_indices":[0,0,0,0,0,0,0,0,0,0,0,0,0,0,0,0,0,0,0,0,0,0,0,0,0],"split_type":[0,0,0,0,0,0,0,0,0,0,0,0,0,0,0,0,0,0,0,0,0,0,0,0,0],"sum_hessian":[7.68E3,6.569E3,1.111E3,6.398E3,1.71E2,3.13E2,7.98E2,6.239E3,1.59E2,1.55E2,1.58E2,3.16E2,4.82E2,6.071E3,1.68E2,1.62E2,1.54E2,1.61E2,3.21E2,5.906E3,1.65E2,1.62E2,1.59E2,5.103E3,8.03E2],"tree_param":{"num_deleted":"0","num_feature":"1","num_nodes":"25","size_leaf_vector":"1"}},{"base_weights":[6.709517E-4,-3.5006592E-1,2.0729196E0,1.7348242E-1,-5.947757E0,9.996377E0,-1.043524E0,-1.8935639E-1,4.2969337E0,1.1208254E0,4.8227043E0,-6.613883E0,2.6145449E0,3.366339E-2,-2.4603336E0,-1.3965628E0,-2.589294E0,2.077159E0,4.383835E-1,-2.7655312E-1,3.321693E0,7.428775E-2,1.8899341E-1,9.687274E-2,-1.2245252E0],"categories":[],"categories_nodes":[],"categories_segments":[],"categories_sizes":[],"default_left":[0,0,0,0,0,0,0,0,0,0,0,0,0,0,0,0,0,0,0,0,0,0,0,0,0],"id":12,"left_children":[1,3,5,7,-1,9,11,13,-1,-1,-1,15,17,19,-1,-1,-1,-1,21,23,-1,-1,-1,-1,-1],"loss_changes":[5.5833833E3,6.699456E4,2.7469055E4,3.28554E4,0E0,1.1890221E4,1.6298321E4,1.1149782E4,0E0,0E0,0E0,1.2122344E3,4.5264277E3,2.079584E4,0E0,0E0,0E0,0E0,1.1612495E1,1.347561E4,0E0,0E0,0E0,0E0,0E0],"parents":[2147483647,0,0,1,1,2,2,3,3,5,5,6,6,7,7,11,11,12,12,13,13,18,18,19,19],"right_children":[2,4,6,8,-1,10,12,14,-1,-1,-1,16,18,20,-1,-1,-1,-1,22,24,-1,-1,-1,-1,-1],"split_conditions":[2.02409E5,2.02408E5,2.02411E5,2.02407E5,-5.947757E0,2.0241E5,2.02501E5,2.02406E5,4.2969337E0,1.1208254E0,4.8227043E0,2.02412E5,2.02502E5,2.02405E5,-2.4603336E0,-1.3965628E0,-2.589294E0,2.077159E0,2.02503E5,2.02312E5,3.321693E0,7.428775E-2,1.8899341E-1,9.687274E-2,-1.2245252E0],"split_indices":[0,0,0,0,0,0,0,0,0,0,0,0,0,0,0,0,0,0,0,0,0,0,0,0,0],"split_type":[0,0,0,0,0,0,0,0,0,0,0,0,0,0,0,0,0,0,0,0,0,0,0,0,0],"sum_hessian":[7.68E3,6.569E3,1.111E3,6.398E3,1.71E2,3.13E2,7.98E2,6.239E3,1.59E2,1.55E2,1.58E2,3.16E2,4.82E2,6.071E3,1.68E2,1.62E2,1.54E2,1.61E2,3.21E2,5.906E3,1.65E2,1.62E2,1.59E2,5.103E3,8.03E2],"tree_param":{"num_deleted":"0","num_feature":"1","num_nodes":"25","size_leaf_vector":"1"}},{"base_weights":[7.864564E-4,-3.0821576E0,2.0762923E-1,-1.9163124E-1,-2.8308656E0,2.8218894E0,-1.460899E-3,-1.2349381E0,1.1344918E0,-2.2739003E0,1.7700557E-1,3.5661504E0,-1.664402E-1,-1.9520428E-2,7.0513496E0,-4.117012E0,4.0540263E-1,2.1071577E0,-2.0395954E0,2.4431987E0,1.7530383E0,-2.9802293E-1,-2.5890312E0,1.6922802E0,-9.144172E-2],"categories":[],"categories_nodes":[],"categories_segments":[],"categories_sizes":[],"default_left":[0,0,0,0,0,0,0,0,0,0,0,0,0,0,0,0,0,0,0,0,0,0,0,0,0],"id":13,"left_children":[1,3,5,7,-1,-1,9,-1,-1,-1,11,13,15,17,19,21,23,-1,-1,-1,-1,-1,-1,-1,-1],"loss_changes":[4.8986963E3,8.869248E3,1.3846216E4,5.208505E3,0E0,0E0,9.52263E3,0E0,0E0,0E0,8.0076636E3,7.9105967E3,1.4114305E4,1.4992873E4,3.7606543E2,1.1128141E4,2.0296297E4,0E0,0E0,0E0,0E0,0E0,0E0,0E0,0E0],"parents":[2147483647,0,0,1,1,2,2,3,3,6,6,10,10,11,11,12,12,13,13,14,14,15,15,16,16],"right_children":[2,4,6,8,-1,-1,10,-1,-1,-1,12,14,16,18,20,22,24,-1,-1,-1,-1,-1,-1,-1,-1],"split_conditions":[2.02107E5,2.02106E5,2.02108E5,2.02105E5,-2.8308656E0,2.8218894E0,2.02109E5,-1.2349381E0,1.1344918E0,-2.2739003E0,2.02201E5,2.02111E5,2.02206E5,2.0211E5,2.02112E5,2.02204E5,2.0221E5,2.1071577E0,-2.0395954E0,2.4431987E0,1.7530383E0,-2.9802293E-1,-2.5890312E0,1.6922802E0,-9.144172E-2],"split_indices":[0,0,0,0,0,0,0,0,0,0,0,0,0,0,0,0,0,0,0,0,0,0,0,0,0],"split_type":[0,0,0,0,0,0,0,0,0,0,0,0,0,0,0,0,0,0,0,0,0,0,0,0,0],"sum_hessian":[7.68E3,4.82E2,7.198E3,3.32E2,1.5E2,1.59E2,7.039E3,1.67E2,1.65E2,1.61E2,6.878E3,6.32E2,6.246E3,3.12E2,3.2E2,7.89E2,5.457E3,1.53E2,1.59E2,1.65E2,1.55E2,4.67E2,3.22E2,6.51E2,4.806E3],"tree_param":{"num_deleted":"0","num_feature":"1","num_nodes":"25","size_leaf_vector":"1"}},{"base_weights":[6.193646E-4,-8.289823E-1,8.911255E-1,4.1934672E-1,-7.424293E0,8.816276E0,-3.0814117E-1,-2.6739651E-2,2.8988335E0,-5.7168508E0,-3.7563732E0,9.335024E-1,1.1650226E1,-4.9239306E0,5.562311E-1,-6.544845E-1,2.5120494E0,-9.833066E0,8.3691025E-1,4.3819447E0,2.4818351E0,5.453075E0,-3.5383275E-1,2.1461284E-1,-3.1618724E0,8.563362E0,-3.5091043E0,-1.4752347E0,-4.4809594E0,7.787378E-2,8.156166E0,-6.1961865E0,1.0428411E0,-2.1323887E-1,3.1729898E0,-2.5011313E0,-4.5393685E-1,2.8320177E0,2.307976E0,-7.877103E-1,-1.3062754E0,2.8235228E0,2.091743E0,8.419834E-1,-1.5383513E-1],"categories":[],"categories_nodes":[],"categories_segments":[],"categories_sizes":[],"default_left":[0,0,0,0,0,0,0,0,0,0,0,0,0,0,0,0,0,0,0,0,0,0,0,0,0,0,0,0,0,0,0,0,0,0,0,0,0,0,0,0,0,0,0,0,0],"id":14,"left_children":[1,3,5,7,9,11,13,15,-1,17,-1,-1,19,-1,21,23,25,27,-1,-1,-1,29,31,33,35,37,39,-1,-1,-1,41,-1,43,-1,-1,-1,-1,-1,-1,-1,-1,-1,-1,-1,-1],"loss_changes":[5.675196E3,3.274622E4,3.5216402E4,1.3792927E4,5.437258E3,7.8368633E3,4.4819793E4,5.0887725E3,0E0,1.6694475E4,0E0,0E0,3.1241523E3,0E0,1.36208125E4,5.579339E3,2.3093967E4,7.979371E3,0E0,0E0,0E0,6.7223193E3,7.3114664E4,1.8245998E4,5.6104077E3,1.6842578E2,2.259878E2,0E0,0E0,0E0,4.025332E2,0E0,6.6221426E3,0E0,0E0,0E0,0E0,0E0,0E0,0E0,0E0,0E0,0E0,0E0,0E0],"parents":[2147483647,0,0,1,1,2,2,3,3,4,4,5,5,6,6,7,7,9,9,12,12,14,14,15,15,16,16,17,17,21,21,22,22,23,23,24,24,25,25,26,26,30,30,32,32],"right_children":[2,4,6,8,10,12,14,16,-1,18,-1,-1,20,-1,22,24,26,28,-1,-1,-1,30,32,34,36,38,40,-1,-1,-1,42,-1,44,-1,-1,-1,-1,-1,-1,-1,-1,-1,-1,-1,-1],"split_conditions":[2.02305E5,2.02301E5,2.02308E5,2.02212E5,2.02304E5,2.02306E5,2.02309E5,2.02208E5,2.8988335E0,2.02303E5,-3.7563732E0,9.335024E-1,2.02307E5,-4.9239306E0,2.02312E5,2.02204E5,2.0221E5,2.02302E5,8.3691025E-1,4.3819447E0,2.4818351E0,2.0231E5,2.02401E5,2.02203E5,2.02205E5,2.02209E5,2.02211E5,-1.4752347E0,-4.4809594E0,7.787378E-2,2.02311E5,-6.1961865E0,2.02408E5,-2.1323887E-1,3.1729898E0,-2.5011313E0,-4.5393685E-1,2.8320177E0,2.307976E0,-7.877103E-1,-1.3062754E0,2.8235228E0,2.091743E0,8.419834E-1,-1.5383513E-1],"split_indices":[0,0,0,0,0,0,0,0,0,0,0,0,0,0,0,0,0,0,0,0,0,0,0,0,0,0,0,0,0,0,0,0,0,0,0,0,0,0,0,0,0,0,0,0,0],"split_type":[0,0,0,0,0,0,0,0,0,0,0,0,0,0,0,0,0,0,0,0,0,0,0,0,0,0,0,0,0,0,0,0,0,0,0,0,0,0,0,0,0,0,0,0,0],"sum_hessian":[7.68E3,3.976E3,3.704E3,3.344E3,6.32E2,4.86E2,3.218E3,3.191E3,1.53E2,4.75E2,1.57E2,1.62E2,3.24E2,1.63E2,3.055E3,2.559E3,6.32E2,3.2E2,1.55E2,1.71E2,1.53E2,4.78E2,2.577E3,1.901E3,6.58E2,3.15E2,3.17E2,1.64E2,1.56E2,1.64E2,3.14E2,1.65E2,2.412E3,1.746E3,1.55E2,1.58E2,5E2,1.52E2,1.63E2,1.57E2,1.6E2,1.49E2,1.65E2,1.13E3,1.282E3],"tree_param":{"num_deleted":"0","num_feature":"1","num_nodes":"45","size_leaf_vector":"1"}},{"base_weights":[3.5816536E-4,-2.8730723E-1,1.6999637E0,7.242261E-2,-4.1006527E0,7.2608852E0,-4.8755726E-1,-1.6437751E-1,2.7921524E0,8.598434E-1,3.4581122E0,-4.397786E0,2.0797927E0,1.2027331E-2,-1.9504361E0,-9.070299E-1,-1.7444103E0,1.5309861E0,5.521972E-1,-1.8504392E-1,2.1073813E0,1.2527004E-1,2.0577021E-1,-1.2972086E-2,-1.5266904E0],"categories":[],"categories_nodes":[],"categories_segments":[],"categories_sizes":[],"default_left":[0,0,0,0,0,0,0,0,0,0,0,0,0,0,0,0,0,0,0,0,0,0,0,0,0],"id":15,"left_children":[1,3,5,7,-1,9,11,13,-1,-1,-1,15,17,19,-1,-1,-1,-1,21,23,-1,-1,-1,-1,-1],"loss_changes":[3.7558652E3,3.1627244E4,1.3530609E4,1.3994802E4,0E0,5.854037E3,8.0302485E3,6.975718E3,0E0,0E0,0E0,5.9972656E2,2.2280022E3,8.392666E3,0E0,0E0,0E0,0E0,5.5097656E0,4.1074736E3,0E0,0E0,0E0,0E0,0E0],"parents":[2147483647,0,0,1,1,2,2,3,3,5,5,6,6,7,7,11,11,12,12,13,13,18,18,19,19],"right_children":[2,4,6,8,-1,10,12,14,-1,-1,-1,16,18,20,-1,-1,-1,-1,22,24,-1,-1,-1,-1,-1],"split_conditions":[2.02409E5,2.02408E5,2.02411E5,2.02407E5,-4.1006527E0,2.0241E5,2.02501E5,2.02406E5,2.7921524E0,8.598434E-1,3.4581122E0,2.02412E5,2.02502E5,2.02405E5,-1.9504361E0,-9.070299E-1,-1.7444103E0,1.5309861E0,2.02503E5,2.02404E5,2.1073813E0,1.2527004E-1,2.0577021E-1,-1.2972086E-2,-1.5266904E0],"split_indices":[0,0,0,0,0,0,0,0,0,0,0,0,0,0,0,0,0,0,0,0,0,0,0,0,0],"split_type":[0,0,0,0,0,0,0,0,0,0,0,0,0,0,0,0,0,0,0,0,0,0,0,0,0],"sum_hessian":[7.68E3,6.569E3,1.111E3,6.398E3,1.71E2,3.13E2,7.98E2,6.239E3,1.59E2,1.55E2,1.58E2,3.16E2,4.82E2,6.071E3,1.68E2,1.62E2,1.54E2,1.61E2,3.21E2,5.906E3,1.65E2,1.62E2,1.59E2,5.741E3,1.65E2],"tree_param":{"num_deleted":"0","num_feature":"1","num_nodes":"25","size_leaf_vector":"1"}},{"base_weights":[3.5902753E-4,-5.68062E-1,6.1051023E-1,3.0828196E-1,-5.198082E0,6.200343E0,-2.3536089E-1,-4.801934E-3,2.0386968E0,-3.9996154E0,-2.6327257E0,6.5903854E-1,8.1891985E0,-3.4518948E0,3.6957103E-1,-5.616592E-1,1.6307577E0,-6.8887796E0,5.913103E-1,3.0788686E0,1.7459837E0,3.8405201E0,-2.754849E-1,7.374881E-1,-2.527603E0,4.2543545E0,-2.4500206E0,-1.031482E0,-3.1413696E0,5.8518708E-2,5.7378535E0,-4.344657E0,7.019657E-1,-1.6216591E-1,1.5523478E0,-1.8259897E0,-2.3162818E-1,3.322024E-1,1.8070605E0,-5.4902184E-1,-9.129598E-1,1.9859797E0,1.4718688E0,9.602894E-1,2.7307115E-2],"categories":[],"categories_nodes":[],"categories_segments":[],"categories_sizes":[],"default_left":[0,0,0,0,0,0,0,0,0,0,0,0,0,0,0,0,0,0,0,0,0,0,0,0,0,0,0,0,0,0,0,0,0,0,0,0,0,0,0,0,0,0,0,0,0],"id":16,"left_children":[1,3,5,7,9,11,13,15,-1,17,-1,-1,19,-1,21,23,25,27,-1,-1,-1,29,31,33,35,37,39,-1,-1,-1,41,-1,43,-1,-1,-1,-1,-1,-1,-1,-1,-1,-1,-1,-1],"loss_changes":[2.6642927E3,1.613824E4,1.751973E4,6.794035E3,2.6790254E3,3.8597383E3,2.195191E4,2.9081042E3,0E0,8.22467E3,0E0,0E0,1.5370312E3,0E0,6.843308E3,6.085613E3,8.693246E3,3.9319648E3,0E0,0E0,0E0,3.311956E3,3.580918E4,8.140215E3,5.9183174E3,2.7437412E3,1.1137219E2,0E0,0E0,0E0,1.985918E2,0E0,3.6837407E3,0E0,0E0,0E0,0E0,0E0,0E0,0E0,0E0,0E0,0E0,0E0,0E0],"parents":[2147483647,0,0,1,1,2,2,3,3,4,4,5,5,6,6,7,7,9,9,12,12,14,14,15,15,16,16,17,17,21,21,22,22,23,23,24,24,25,25,26,26,30,30,32,32],"right_children":[2,4,6,8,10,12,14,16,-1,18,-1,-1,20,-1,22,24,26,28,-1,-1,-1,30,32,34,36,38,40,-1,-1,-1,42,-1,44,-1,-1,-1,-1,-1,-1,-1,-1,-1,-1,-1,-1],"split_conditions":[2.02305E5,2.02301E5,2.02308E5,2.02212E5,2.02304E5,2.02306E5,2.02309E5,2.02207E5,2.0386968E0,2.02303E5,-2.6327257E0,6.5903854E-1,2.02307E5,-3.4518948E0,2.02312E5,2.02201E5,2.0221E5,2.02302E5,5.913103E-1,3.0788686E0,1.7459837E0,2.0231E5,2.02401E5,2.02111E5,2.02203E5,2.02208E5,2.02211E5,-1.031482E0,-3.1413696E0,5.8518708E-2,2.02311E5,-4.344657E0,2.02404E5,-1.6216591E-1,1.5523478E0,-1.8259897E0,-2.3162818E-1,3.322024E-1,1.8070605E0,-5.4902184E-1,-9.129598E-1,1.9859797E0,1.4718688E0,9.602894E-1,2.7307115E-2],"split_indices":[0,0,0,0,0,0,0,0,0,0,0,0,0,0,0,0,0,0,0,0,0,0,0,0,0,0,0,0,0,0,0,0,0,0,0,0,0,0,0,0,0,0,0,0,0],"split_type":[0,0,0,0,0,0,0,0,0,0,0,0,0,0,0,0,0,0,0,0,0,0,0,0,0,0,0,0,0,0,0,0,0,0,0,0,0,0,0,0,0,0,0,0,0],"sum_hessian":[7.68E3,3.976E3,3.704E3,3.344E3,6.32E2,4.86E2,3.218E3,3.191E3,1.53E2,4.75E2,1.57E2,1.62E2,3.24E2,1.63E2,3.055E3,2.381E3,8.1E2,3.2E2,1.55E2,1.71E2,1.53E2,4.78E2,2.577E3,1.434E3,9.47E2,4.93E2,3.17E2,1.64E2,1.56E2,1.64E2,3.14E2,1.65E2,2.412E3,1.114E3,3.2E2,3.12E2,6.35E2,1.78E2,3.15E2,1.57E2,1.6E2,1.49E2,1.65E2,4.73E2,1.939E3],"tree_param":{"num_deleted":"0","num_feature":"1","num_nodes":"45","size_leaf_vector":"1"}},{"base_weights":[-6.488114E-6,-1.9733515E-1,1.1658653E0,5.5947542E-2,-2.8857565E0,5.0691586E0,-3.6955392E-1,-1.0943042E-1,1.9516015E0,5.9540665E-1,2.4190648E0,-3.114032E0,1.4324524E0,1.5285585E-2,-1.3769112E0,-6.447308E-1,-1.232602E0,1.066385E0,3.6033127E-1,-1.2206604E-1,1.470828E0,7.97763E-2,1.3627791E-1,-6.4615733E-3,-1.0795838E0],"categories":[],"categories_nodes":[],"categories_segments":[],"categories_sizes":[],"default_left":[0,0,0,0,0,0,0,0,0,0,0,0,0,0,0,0,0,0,0,0,0,0,0,0,0],"id":17,"left_children":[1,3,5,7,-1,9,11,13,-1,-1,-1,15,17,19,-1,-1,-1,-1,21,23,-1,-1,-1,-1,-1],"loss_changes":[1.7673203E3,1.5679135E4,6.666302E3,6.8258022E3,0E0,2.8841338E3,3.9559688E3,3.4867434E3,0E0,0E0,0E0,2.9541357E2,1.0976492E3,4.0767478E3,0E0,0E0,0E0,0E0,2.7346344E0,2.0643506E3,0E0,0E0,0E0,0E0,0E0],"parents":[2147483647,0,0,1,1,2,2,3,3,5,5,6,6,7,7,11,11,12,12,13,13,18,18,19,19],"right_children":[2,4,6,8,-1,10,12,14,-1,-1,-1,16,18,20,-1,-1,-1,-1,22,24,-1,-1,-1,-1,-1],"split_conditions":[2.02409E5,2.02408E5,2.02411E5,2.02407E5,-2.8857565E0,2.0241E5,2.02501E5,2.02406E5,1.9516015E0,5.9540665E-1,2.4190648E0,2.02412E5,2.02502E5,2.02405E5,-1.3769112E0,-6.447308E-1,-1.232602E0,1.066385E0,2.02503E5,2.02404E5,1.470828E0,7.97763E-2,1.3627791E-1,-6.4615733E-3,-1.0795838E0],"split_indices":[0,0,0,0,0,0,0,0,0,0,0,0,0,0,0,0,0,0,0,0,0,0,0,0,0],"split_type":[0,0,0,0,0,0,0,0,0,0,0,0,0,0,0,0,0,0,0,0,0,0,0,0,0],"sum_hessian":[7.68E3,6.569E3,1.111E3,6.398E3,1.71E2,3.13E2,7.98E2,6.239E3,1.59E2,1.55E2,1.58E2,3.16E2,4.82E2,6.071E3,1.68E2,1.62E2,1.54E2,1.61E2,3.21E2,5.906E3,1.65E2,1.62E2,1.59E2,5.741E3,1.65E2],"tree_param":{"num_deleted":"0","num_feature":"1","num_nodes":"25","size_leaf_vector":"1"}},{"base_weights":[6.522085E-5,-1.7695581E0,1.18793935E-1,2.5920728E-1,-1.8695616E0,2.0983183E0,-3.7486576E-2,-7.489167E-1,9.1393256E-1,-1.4782239E0,7.767632E-2,1.5968031E0,-4.2425927E-2,-1.313834E0,6.324877E-2,1.0900333E0,-3.6064398E-2],"categories":[],"categories_nodes":[],"categories_segments":[],"categories_sizes":[],"default_left":[0,0,0,0,0,0,0,0,0,0,0,0,0,0,0,0,0],"id":18,"left_children":[1,3,5,7,-1,-1,9,-1,-1,-1,11,-1,13,-1,15,-1,-1],"loss_changes":[1.6140275E3,4.374208E3,7.7357476E3,2.5652092E3,0E0,0E0,3.964875E3,0E0,0E0,0E0,4.3335576E3,0E0,3.0828926E3,0E0,4.301824E3,0E0,0E0],"parents":[2147483647,0,0,1,1,2,2,3,3,6,6,10,10,12,12,14,14],"right_children":[2,4,6,8,-1,-1,10,-1,-1,-1,12,-1,14,-1,16,-1,-1],"split_conditions":[2.02107E5,2.02106E5,2.02108E5,2.02105E5,-1.8695616E0,2.0983183E0,2.02109E5,-7.489167E-1,9.1393256E-1,-1.4782239E0,2.0211E5,1.5968031E0,2.02111E5,-1.313834E0,2.02201E5,1.0900333E0,-3.6064398E-2],"split_indices":[0,0,0,0,0,0,0,0,0,0,0,0,0,0,0,0,0],"split_type":[0,0,0,0,0,0,0,0,0,0,0,0,0,0,0,0,0],"sum_hessian":[7.68E3,4.82E2,7.198E3,3.32E2,1.5E2,1.59E2,7.039E3,1.67E2,1.65E2,1.61E2,6.878E3,1.53E2,6.725E3,1.59E2,6.566E3,3.2E2,6.246E3],"tree_param":{"num_deleted":"0","num_feature":"1","num_nodes":"17","size_leaf_vector":"1"}},{"base_weights":[8.485007E-5,-4.2578104E-1,4.5721537E-1,1.761633E-1,-3.605999E0,4.393964E0,-1.3851428E-1,-4.7573037E-2,1.4437392E0,-2.764801E0,-1.8352257E0,4.752266E-1,5.7897043E0,-2.409952E0,2.851973E-1,-4.671554E-1,1.1848471E0,-4.7927346E0,4.2773587E-1,2.1732686E0,1.2382728E0,2.7381496E0,-1.7067915E-1,2.1389887E-1,-3.1592512E0,3.0248232E0,-1.6772062E0,-7.112247E-1,-2.1922822E0,5.3749975E-2,4.069877E0,-3.0364225E0,5.139423E-1,-1.3665879E-1,2.3127794E0,-1.6699123E0,-5.893619E-1,2.4578416E-1,1.2793779E0,-3.7268013E-1,-6.2808704E-1,1.4068313E0,1.0456548E0,6.85545E-1,2.4275519E-2],"categories":[],"categories_nodes":[],"categories_segments":[],"categories_sizes":[],"default_left":[0,0,0,0,0,0,0,0,0,0,0,0,0,0,0,0,0,0,0,0,0,0,0,0,0,0,0,0,0,0,0,0,0,0,0,0,0,0,0,0,0,0,0,0,0],"id":19,"left_children":[1,3,5,7,9,11,13,15,-1,17,-1,-1,19,-1,21,23,25,27,-1,-1,-1,29,31,33,35,37,39,-1,-1,-1,41,-1,43,-1,-1,-1,-1,-1,-1,-1,-1,-1,-1,-1,-1],"loss_changes":[1.4955032E3,7.6138623E3,8.689715E3,3.4700269E3,1.3203643E3,1.9007725E3,1.0770033E4,1.6511423E3,0E0,4.0519924E3,0E0,0E0,7.558213E2,0E0,3.4178184E3,4.3679854E3,4.2758877E3,1.9378818E3,0E0,0E0,0E0,1.6316396E3,1.7567781E4,9.547004E3,1.372333E3,1.3472827E3,5.499408E1,0E0,0E0,0E0,9.769922E1,0E0,1.8505269E3,0E0,0E0,0E0,0E0,0E0,0E0,0E0,0E0,0E0,0E0,0E0,0E0],"parents":[2147483647,0,0,1,1,2,2,3,3,4,4,5,5,6,6,7,7,9,9,12,12,14,14,15,15,16,16,17,17,21,21,22,22,23,23,24,24,25,25,26,26,30,30,32,32],"right_children":[2,4,6,8,10,12,14,16,-1,18,-1,-1,20,-1,22,24,26,28,-1,-1,-1,30,32,34,36,38,40,-1,-1,-1,42,-1,44,-1,-1,-1,-1,-1,-1,-1,-1,-1,-1,-1,-1],"split_conditions":[2.02305E5,2.02301E5,2.02308E5,2.02212E5,2.02304E5,2.02306E5,2.02309E5,2.02207E5,1.4437392E0,2.02303E5,-1.8352257E0,4.752266E-1,2.02307E5,-2.409952E0,2.02312E5,2.02204E5,2.0221E5,2.02302E5,4.2773587E-1,2.1732686E0,1.2382728E0,2.0231E5,2.02401E5,2.02203E5,2.02205E5,2.02208E5,2.02211E5,-7.112247E-1,-2.1922822E0,5.3749975E-2,2.02311E5,-3.0364225E0,2.02404E5,-1.3665879E-1,2.3127794E0,-1.6699123E0,-5.893619E-1,2.4578416E-1,1.2793779E0,-3.7268013E-1,-6.2808704E-1,1.4068313E0,1.0456548E0,6.85545E-1,2.4275519E-2],"split_indices":[0,0,0,0,0,0,0,0,0,0,0,0,0,0,0,0,0,0,0,0,0,0,0,0,0,0,0,0,0,0,0,0,0,0,0,0,0,0,0,0,0,0,0,0,0],"split_type":[0,0,0,0,0,0,0,0,0,0,0,0,0,0,0,0,0,0,0,0,0,0,0,0,0,0,0,0,0,0,0,0,0,0,0,0,0,0,0,0,0,0,0,0,0],"sum_hessian":[7.68E3,3.976E3,3.704E3,3.344E3,6.32E2,4.86E2,3.218E3,3.191E3,1.53E2,4.75E2,1.57E2,1.62E2,3.24E2,1.63E2,3.055E3,2.381E3,8.1E2,3.2E2,1.55E2,1.71E2,1.53E2,4.78E2,2.577E3,1.901E3,4.8E2,4.93E2,3.17E2,1.64E2,1.56E2,1.64E2,3.14E2,1.65E2,2.412E3,1.746E3,1.55E2,1.58E2,3.22E2,1.78E2,3.15E2,1.57E2,1.6E2,1.49E2,1.65E2,4.73E2,1.939E3],"tree_param":{"num_deleted":"0","num_feature":"1","num_nodes":"45","size_leaf_vector":"1"}},{"base_weights":[-3.744671E-5,-1.4053907E-1,8.300846E-1,3.6830295E-2,-2.0215445E0,3.5697868E0,-2.4763325E-1,-7.9607405E-2,1.373301E0,4.2145196E-1,1.7014304E0,-2.1739619E0,1.0171572E0,7.510282E-3,-9.6275616E-1,-4.489709E-1,-8.6168724E-1,7.519687E-1,2.6467034E-1,-8.9304E-2,1.0357611E0,5.9512593E-2,9.916626E-2,-5.7591647E-3,-7.5413555E-1],"categories":[],"categories_nodes":[],"categories_segments":[],"categories_sizes":[],"default_left":[0,0,0,0,0,0,0,0,0,0,0,0,0,0,0,0,0,0,0,0,0,0,0,0,0],"id":20,"left_children":[1,3,5,7,-1,9,11,13,-1,-1,-1,15,17,19,-1,-1,-1,-1,21,23,-1,-1,-1,-1,-1],"loss_changes":[8.959785E2,7.688941E3,3.2842039E3,3.3836753E3,0E0,1.4207183E3,1.9488965E3,1.7013086E3,0E0,0E0,0E0,1.4565588E2,5.406625E2,2.0254891E3,0E0,0E0,0E0,0E0,1.3408489E0,1.0039797E3,0E0,0E0,0E0,0E0,0E0],"parents":[2147483647,0,0,1,1,2,2,3,3,5,5,6,6,7,7,11,11,12,12,13,13,18,18,19,19],"right_children":[2,4,6,8,-1,10,12,14,-1,-1,-1,16,18,20,-1,-1,-1,-1,22,24,-1,-1,-1,-1,-1],"split_conditions":[2.02409E5,2.02408E5,2.02411E5,2.02407E5,-2.0215445E0,2.0241E5,2.02501E5,2.02406E5,1.373301E0,4.2145196E-1,1.7014304E0,2.02412E5,2.02502E5,2.02405E5,-9.6275616E-1,-4.489709E-1,-8.6168724E-1,7.519687E-1,2.02503E5,2.02404E5,1.0357611E0,5.9512593E-2,9.916626E-2,-5.7591647E-3,-7.5413555E-1],"split_indices":[0,0,0,0,0,0,0,0,0,0,0,0,0,0,0,0,0,0,0,0,0,0,0,0,0],"split_type":[0,0,0,0,0,0,0,0,0,0,0,0,0,0,0,0,0,0,0,0,0,0,0,0,0],"sum_hessian":[7.68E3,6.569E3,1.111E3,6.398E3,1.71E2,3.13E2,7.98E2,6.239E3,1.59E2,1.55E2,1.58E2,3.16E2,4.82E2,6.071E3,1.68E2,1.62E2,1.54E2,1.61E2,3.21E2,5.906E3,1.65E2,1.62E2,1.59E2,5.741E3,1.65E2],"tree_param":{"num_deleted":"0","num_feature":"1","num_nodes":"25","size_leaf_vector":"1"}},{"base_weights":[3.1628068E-5,-2.9289135E-1,3.1445932E-1,1.2964267E-1,-2.5252504E0,3.089509E0,-1.05473444E-1,-2.7398858E-2,1.015153E0,-1.9348066E0,-1.2864223E0,3.352559E-1,4.0690312E0,-1.6896591E0,1.9115224E-1,-3.2127908E-1,8.357948E-1,-3.3582108E0,3.019573E-1,1.5267959E0,8.709201E-1,1.9276979E0,-1.315772E-1,4.382309E-1,-1.8523906E0,2.1262128E0,-1.1714453E0,-4.9743357E-1,-1.5370649E0,3.944644E-2,2.86245E0,-2.1292672E0,3.4769517E-1,-3.3002818E-1,3.3198392E-1,-2.410138E0,-1.0290127E-1,1.7418098E-1,8.9850116E-1,-2.598643E-1,-4.391138E-1,9.8931444E-1,7.3556846E-1,4.8204184E-1,1.1963258E-2],"categories":[],"categories_nodes":[],"categories_segments":[],"categories_sizes":[],"default_left":[0,0,0,0,0,0,0,0,0,0,0,0,0,0,0,0,0,0,0,0,0,0,0,0,0,0,0,0,0,0,0,0,0,0,0,0,0,0,0,0,0,0,0,0,0],"id":21,"left_children":[1,3,5,7,9,11,13,15,-1,17,-1,-1,19,-1,21,23,25,27,-1,-1,-1,29,31,33,35,37,39,-1,-1,-1,41,-1,43,-1,-1,-1,-1,-1,-1,-1,-1,-1,-1,-1,-1],"loss_changes":[7.07536E2,3.7516235E3,4.3178896E3,1.709537E3,6.505603E2,9.36145E2,5.278203E3,8.1000085E2,0E0,1.9962509E3,0E0,0E0,3.7185205E2,0E0,1.7129413E3,2.7708264E3,2.1031255E3,9.54906E2,0E0,0E0,0E0,8.038699E2,8.609382E3,1.6391222E3,7.368042E3,6.616101E2,2.7100616E1,0E0,0E0,0E0,4.820508E1,0E0,9.3515796E2,0E0,0E0,0E0,0E0,0E0,0E0,0E0,0E0,0E0,0E0,0E0,0E0],"parents":[2147483647,0,0,1,1,2,2,3,3,4,4,5,5,6,6,7,7,9,9,12,12,14,14,15,15,16,16,17,17,21,21,22,22,23,23,24,24,25,25,26,26,30,30,32,32],"right_children":[2,4,6,8,10,12,14,16,-1,18,-1,-1,20,-1,22,24,26,28,-1,-1,-1,30,32,34,36,38,40,-1,-1,-1,42,-1,44,-1,-1,-1,-1,-1,-1,-1,-1,-1,-1,-1,-1],"split_conditions":[2.02305E5,2.02301E5,2.02308E5,2.02212E5,2.02304E5,2.02306E5,2.02309E5,2.02207E5,1.015153E0,2.02303E5,-1.2864223E0,3.352559E-1,2.02307E5,-1.6896591E0,2.02312E5,2.02202E5,2.0221E5,2.02302E5,3.019573E-1,1.5267959E0,8.709201E-1,2.0231E5,2.02401E5,2.02107E5,2.02203E5,2.02208E5,2.02211E5,-4.9743357E-1,-1.5370649E0,3.944644E-2,2.02311E5,-2.1292672E0,2.02404E5,-3.3002818E-1,3.3198392E-1,-2.410138E0,-1.0290127E-1,1.7418098E-1,8.9850116E-1,-2.598643E-1,-4.391138E-1,9.8931444E-1,7.3556846E-1,4.8204184E-1,1.1963258E-2],"split_indices":[0,0,0,0,0,0,0,0,0,0,0,0,0,0,0,0,0,0,0,0,0,0,0,0,0,0,0,0,0,0,0,0,0,0,0,0,0,0,0,0,0,0,0,0,0],"split_type":[0,0,0,0,0,0,0,0,0,0,0,0,0,0,0,0,0,0,0,0,0,0,0,0,0,0,0,0,0,0,0,0,0,0,0,0,0,0,0,0,0,0,0,0,0],"sum_hessian":[7.68E3,3.976E3,3.704E3,3.344E3,6.32E2,4.86E2,3.218E3,3.191E3,1.53E2,4.75E2,1.57E2,1.62E2,3.24E2,1.63E2,3.055E3,2.381E3,8.1E2,3.2E2,1.55E2,1.71E2,1.53E2,4.78E2,2.577E3,1.592E3,7.89E2,4.93E2,3.17E2,1.64E2,1.56E2,1.64E2,3.14E2,1.65E2,2.412E3,4.82E2,1.11E3,1.54E2,6.35E2,1.78E2,3.15E2,1.57E2,1.6E2,1.49E2,1.65E2,4.73E2,1.939E3],"tree_param":{"num_deleted":"0","num_feature":"1","num_nodes":"45","size_leaf_vector":"1"}},{"base_weights":[-3.644866E-4,-9.7012974E-2,5.7066154E-1,2.78177E-2,-1.4221756E0,2.4936984E0,-1.8578927E-1,-5.355239E-2,9.603232E-1,2.922627E-1,1.1906503E0,-1.5378253E0,7.019565E-1,7.979509E-3,-6.7920446E-1,-3.186717E-1,-6.08411E-1,5.2419776E-1,1.7384538E-1,-5.955546E-2,7.2333556E-1,3.8200576E-2,6.604231E-2,-2.976317E-3,-5.3282064E-1],"categories":[],"categories_nodes":[],"categories_segments":[],"categories_sizes":[],"default_left":[0,0,0,0,0,0,0,0,0,0,0,0,0,0,0,0,0,0,0,0,0,0,0,0,0],"id":22,"left_children":[1,3,5,7,-1,9,11,13,-1,-1,-1,15,17,19,-1,-1,-1,-1,21,23,-1,-1,-1,-1,-1],"loss_changes":[4.2396057E2,3.8084998E3,1.6180704E3,1.652447E3,0E0,6.999498E2,9.600906E2,8.4874506E2,0E0,0E0,0E0,7.175043E1,2.6634662E2,9.8560443E2,0E0,0E0,0E0,0E0,6.653042E-1,5.0324765E2,0E0,0E0,0E0,0E0,0E0],"parents":[2147483647,0,0,1,1,2,2,3,3,5,5,6,6,7,7,11,11,12,12,13,13,18,18,19,19],"right_children":[2,4,6,8,-1,10,12,14,-1,-1,-1,16,18,20,-1,-1,-1,-1,22,24,-1,-1,-1,-1,-1],"split_conditions":[2.02409E5,2.02408E5,2.02411E5,2.02407E5,-1.4221756E0,2.0241E5,2.02501E5,2.02406E5,9.603232E-1,2.922627E-1,1.1906503E0,2.02412E5,2.02502E5,2.02405E5,-6.7920446E-1,-3.186717E-1,-6.08411E-1,5.2419776E-1,2.02503E5,2.02404E5,7.2333556E-1,3.8200576E-2,6.604231E-2,-2.976317E-3,-5.3282064E-1],"split_indices":[0,0,0,0,0,0,0,0,0,0,0,0,0,0,0,0,0,0,0,0,0,0,0,0,0],"split_type":[0,0,0,0,0,0,0,0,0,0,0,0,0,0,0,0,0,0,0,0,0,0,0,0,0],"sum_hessian":[7.68E3,6.569E3,1.111E3,6.398E3,1.71E2,3.13E2,7.98E2,6.239E3,1.59E2,1.55E2,1.58E2,3.16E2,4.82E2,6.071E3,1.68E2,1.62E2,1.54E2,1.61E2,3.21E2,5.906E3,1.65E2,1.62E2,1.59E2,5.741E3,1.65E2],"tree_param":{"num_deleted":"0","num_feature":"1","num_nodes":"25","size_leaf_vector":"1"}},{"base_weights":[-2.1566324E-4,-2.0307478E-1,2.1753627E-1,9.340552E-2,-1.7694627E0,2.1712534E0,-7.8107655E-2,-1.6856888E-2,7.134714E-1,-1.3550216E0,-9.020499E-1,2.3618303E-1,2.8586903E0,-1.1849567E0,1.2969494E-1,4.027041E-1,-3.593217E-1,-2.3540986E0,2.1283717E-1,1.0723135E0,6.1223626E-1,1.35605E0,-9.821575E-2,-1.613886E-1,2.360837E0,-3.0608788E0,2.2570366E-1,-3.4821594E-1,-1.0779877E0,2.857103E-2,2.012171E0,-1.4934422E0,2.3753466E-1,1.0717296E-1,-9.777615E-1,9.4046736E-1,4.5660916E-1,-1.5931463E-1,-1.6908742E0,1.6566795E0,-1.2434684E-1,6.953886E-1,5.171197E-1,3.3862448E-1,5.8986344E-3],"categories":[],"categories_nodes":[],"categories_segments":[],"categories_sizes":[],"default_left":[0,0,0,0,0,0,0,0,0,0,0,0,0,0,0,0,0,0,0,0,0,0,0,0,0,0,0,0,0,0,0,0,0,0,0,0,0,0,0,0,0,0,0,0,0],"id":23,"left_children":[1,3,5,7,9,11,13,15,-1,17,-1,-1,19,-1,21,23,25,27,-1,-1,-1,29,31,33,35,37,39,-1,-1,-1,41,-1,43,-1,-1,-1,-1,-1,-1,-1,-1,-1,-1,-1,-1],"loss_changes":[3.3933673E2,1.8470966E3,2.1401946E3,8.4274976E2,3.2053894E2,4.610796E2,2.5903884E3,4.5878683E2,0E0,9.834549E2,0E0,0E0,1.8294849E2,0E0,8.542834E2,1.5854368E3,2.7791736E3,4.705326E2,0E0,0E0,0E0,3.9605933E2,4.2250723E3,1.7925522E3,2.0364807E2,2.0362783E3,4.905418E3,0E0,0E0,0E0,2.3787964E1,0E0,4.6851233E2,0E0,0E0,0E0,0E0,0E0,0E0,0E0,0E0,0E0,0E0,0E0,0E0],"parents":[2147483647,0,0,1,1,2,2,3,3,4,4,5,5,6,6,7,7,9,9,12,12,14,14,15,15,16,16,17,17,21,21,22,22,23,23,24,24,25,25,26,26,30,30,32,32],"right_children":[2,4,6,8,10,12,14,16,-1,18,-1,-1,20,-1,22,24,26,28,-1,-1,-1,30,32,34,36,38,40,-1,-1,-1,42,-1,44,-1,-1,-1,-1,-1,-1,-1,-1,-1,-1,-1,-1],"split_conditions":[2.02305E5,2.02301E5,2.02308E5,2.02212E5,2.02304E5,2.02306E5,2.02309E5,2.02201E5,7.134714E-1,2.02303E5,-9.020499E-1,2.3618303E-1,2.02307E5,-1.1849567E0,2.02312E5,2.02111E5,2.02203E5,2.02302E5,2.1283717E-1,1.0723135E0,6.1223626E-1,2.0231E5,2.02401E5,2.0211E5,2.02112E5,2.02202E5,2.02204E5,-3.4821594E-1,-1.0779877E0,2.857103E-2,2.02311E5,-1.4934422E0,2.02404E5,1.0717296E-1,-9.777615E-1,9.4046736E-1,4.5660916E-1,-1.5931463E-1,-1.6908742E0,1.6566795E0,-1.2434684E-1,6.953886E-1,5.171197E-1,3.3862448E-1,5.8986344E-3],"split_indices":[0,0,0,0,0,0,0,0,0,0,0,0,0,0,0,0,0,0,0,0,0,0,0,0,0,0,0,0,0,0,0,0,0,0,0,0,0,0,0,0,0,0,0,0,0],"split_type":[0,0,0,0,0,0,0,0,0,0,0,0,0,0,0,0,0,0,0,0,0,0,0,0,0,0,0,0,0,0,0,0,0,0,0,0,0,0,0,0,0,0,0,0,0],"sum_hessian":[7.68E3,3.976E3,3.704E3,3.344E3,6.32E2,4.86E2,3.218E3,3.191E3,1.53E2,4.75E2,1.57E2,1.62E2,3.24E2,1.63E2,3.055E3,1.434E3,1.757E3,3.2E2,1.55E2,1.71E2,1.53E2,4.78E2,2.577E3,1.114E3,3.2E2,3.12E2,1.445E3,1.64E2,1.56E2,1.64E2,3.14E2,1.65E2,2.412E3,9.55E2,1.59E2,1.65E2,1.55E2,1.58E2,1.54E2,1.55E2,1.29E3,1.49E2,1.65E2,4.73E2,1.939E3],"tree_param":{"num_deleted":"0","num_feature":"1","num_nodes":"45","size_leaf_vector":"1"}},{"base_weights":[-1.9594462E-4,-8.7473583E-1,5.8479283E-2,5.4907525E-1,-1.2026613E0,1.3851871E0,-4.5138367E-2,-4.1576374E-1,7.512104E-1,-1.1250747E0,4.2123314E-2,1.0333259E0,-3.578268E-2,-6.8626964E-1,1.9085756E-2,4.970835E-1,-1.9523442E-2],"categories":[],"categories_nodes":[],"categories_segments":[],"categories_sizes":[],"default_left":[0,0,0,0,0,0,0,0,0,0,0,0,0,0,0,0,0],"id":24,"left_children":[1,3,5,7,-1,-1,9,-1,-1,-1,11,-1,13,-1,15,-1,-1],"loss_changes":[3.9419266E2,2.1575479E3,3.4008235E3,1.2631283E3,0E0,0E0,2.2762898E3,0E0,0E0,0E0,1.8234658E3,0E0,8.31053E2,0E0,9.0535956E2,0E0,0E0],"parents":[2147483647,0,0,1,1,2,2,3,3,6,6,10,10,12,12,14,14],"right_children":[2,4,6,8,-1,-1,10,-1,-1,-1,12,-1,14,-1,16,-1,-1],"split_conditions":[2.02107E5,2.02106E5,2.02108E5,2.02105E5,-1.2026613E0,1.3851871E0,2.02109E5,-4.1576374E-1,7.512104E-1,-1.1250747E0,2.0211E5,1.0333259E0,2.02111E5,-6.8626964E-1,2.02201E5,4.970835E-1,-1.9523442E-2],"split_indices":[0,0,0,0,0,0,0,0,0,0,0,0,0,0,0,0,0],"split_type":[0,0,0,0,0,0,0,0,0,0,0,0,0,0,0,0,0],"sum_hessian":[7.68E3,4.82E2,7.198E3,3.32E2,1.5E2,1.59E2,7.039E3,1.67E2,1.65E2,1.61E2,6.878E3,1.53E2,6.725E3,1.59E2,6.566E3,3.2E2,6.246E3],"tree_param":{"num_deleted":"0","num_feature":"1","num_nodes":"17","size_leaf_vector":"1"}},{"base_weights":[-1.019067E-4,-3.2549262E-1,1.3248678E-1,1.183431E-1,-2.9380314E0,1.2490741E0,-1.8989697E-2,-2.1901932E-1,1.1686834E0,-1.0959023E0,-6.693745E-1,3.107902E-1,2.2457595E0,-6.606077E-1,1.7202882E-1,1.4286673E-1,-1.1810584E0,1.06986575E-2,1.6603243E-1,8.623267E-1,4.93671E-1,9.59116E-2,-1.2224718E0,1.5433059E0,-3.548405E-2,-6.141099E-1,4.7182876E-1,-6.7579174E-1,5.0664186E-1,-9.31579E-1,-6.2732863E-1,1.715882E-1,2.0257244E0,-8.258123E-1,1.10347144E-1,1.1560697E-1,-8.442493E-1,9.7222584E-1,1.7903369E-3,-1.386151E-1,-2.644059E-1,-4.8985606E-1,1.5521997E-1,7.5831103E-1,4.355755E-1,2.9139692E-1,-1.4900256E-2],"categories":[],"categories_nodes":[],"categories_segments":[],"categories_sizes":[],"default_left":[0,0,0,0,0,0,0,0,0,0,0,0,0,0,0,0,0,0,0,0,0,0,0,0,0,0,0,0,0,0,0,0,0,0,0,0,0,0,0,0,0,0,0,0,0,0,0],"id":25,"left_children":[1,3,5,7,9,11,13,15,-1,-1,-1,17,19,21,23,25,-1,-1,-1,-1,-1,27,29,31,33,35,37,39,-1,41,-1,-1,43,-1,45,-1,-1,-1,-1,-1,-1,-1,-1,-1,-1,-1,-1],"loss_changes":[3.3142548E2,2.5791602E3,9.2317194E2,2.4245876E3,1.5507202E2,6.0903546E2,5.89264E2,2.3510376E3,0E0,0E0,0E0,2.2478424E1,1.1450195E2,4.6895966E2,1.0543408E3,3.9697318E2,0E0,0E0,0E0,0E0,0E0,5.8011426E2,1.579961E2,2.27047E2,1.2758516E3,1.0631437E3,1.4330969E3,1.3564728E1,0E0,4.8452362E2,0E0,0E0,8.9942505E1,0E0,4.2106958E2,0E0,0E0,0E0,0E0,0E0,0E0,0E0,0E0,0E0,0E0,0E0,0E0],"parents":[2147483647,0,0,1,1,2,2,3,3,4,4,5,5,6,6,7,7,11,11,12,12,13,13,14,14,15,15,21,21,22,22,23,23,24,24,25,25,26,26,27,27,29,29,32,32,34,34],"right_children":[2,4,6,8,10,12,14,16,-1,-1,-1,18,20,22,24,26,-1,-1,-1,-1,-1,28,30,32,34,36,38,40,-1,42,-1,-1,44,-1,46,-1,-1,-1,-1,-1,-1,-1,-1,-1,-1,-1,-1],"split_conditions":[2.02206E5,2.02204E5,2.0221E5,2.02203E5,2.02205E5,2.02208E5,2.02305E5,2.02202E5,1.1686834E0,-1.0959023E0,-6.693745E-1,2.02207E5,2.02209E5,2.02301E5,2.02308E5,2.02107E5,-1.1810584E0,1.06986575E-2,1.6603243E-1,8.623267E-1,4.93671E-1,2.02212E5,2.02304E5,2.02306E5,2.02309E5,2.02106E5,2.02108E5,2.02211E5,5.0664186E-1,2.02303E5,-6.2732863E-1,1.715882E-1,2.02307E5,-8.258123E-1,2.02312E5,1.1560697E-1,-8.442493E-1,9.7222584E-1,1.7903369E-3,-1.386151E-1,-2.644059E-1,-4.8985606E-1,1.5521997E-1,7.5831103E-1,4.355755E-1,2.9139692E-1,-1.4900256E-2],"split_indices":[0,0,0,0,0,0,0,0,0,0,0,0,0,0,0,0,0,0,0,0,0,0,0,0,0,0,0,0,0,0,0,0,0,0,0,0,0,0,0,0,0,0,0,0,0,0,0],"split_type":[0,0,0,0,0,0,0,0,0,0,0,0,0,0,0,0,0,0,0,0,0,0,0,0,0,0,0,0,0,0,0,0,0,0,0,0,0,0,0,0,0,0,0,0,0,0,0],"sum_hessian":[7.68E3,2.223E3,5.457E3,1.901E3,3.22E2,6.51E2,4.806E3,1.746E3,1.55E2,1.58E2,1.64E2,3.36E2,3.15E2,1.102E3,3.704E3,1.592E3,1.54E2,1.58E2,1.78E2,1.52E2,1.63E2,4.7E2,6.32E2,4.86E2,3.218E3,4.82E2,1.11E3,3.17E2,1.53E2,4.75E2,1.57E2,1.62E2,3.24E2,1.63E2,3.055E3,3.32E2,1.5E2,1.59E2,9.51E2,1.57E2,1.6E2,3.2E2,1.55E2,1.71E2,1.53E2,4.78E2,2.577E3],"tree_param":{"num_deleted":"0","num_feature":"1","num_nodes":"47","size_leaf_vector":"1"}},{"base_weights":[-8.003862E-5,-7.270906E-2,4.2903215E-1,1.4003757E-2,-9.894917E-1,1.7787552E0,-1.0193416E-1,-4.3975506E-2,6.825323E-1,2.1364953E-1,8.4421015E-1,-1.0509713E0,5.2114385E-1,-1.760337E-3,-4.681392E-1,-2.1515194E-1,-4.1856518E-1,3.7641773E-1,1.5045631E-1,-5.015957E-2,5.161515E-1,3.5316497E-2,5.4859318E-2,-4.915679E-3,-3.6543342E-1],"categories":[],"categories_nodes":[],"categories_segments":[],"categories_sizes":[],"default_left":[0,0,0,0,0,0,0,0,0,0,0,0,0,0,0,0,0,0,0,0,0,0,0,0,0],"id":26,"left_children":[1,3,5,7,-1,9,11,13,-1,-1,-1,15,17,19,-1,-1,-1,-1,21,23,-1,-1,-1,-1,-1],"loss_changes":[2.3941722E2,1.8376788E3,7.971044E2,8.3899066E2,0E0,3.4472046E2,4.730157E2,3.9947464E2,0E0,0E0,0E0,3.5425446E1,1.3115327E2,5.062258E2,0E0,0E0,0E0,0E0,3.200717E-1,2.3298976E2,0E0,0E0,0E0,0E0,0E0],"parents":[2147483647,0,0,1,1,2,2,3,3,5,5,6,6,7,7,11,11,12,12,13,13,18,18,19,19],"right_children":[2,4,6,8,-1,10,12,14,-1,-1,-1,16,18,20,-1,-1,-1,-1,22,24,-1,-1,-1,-1,-1],"split_conditions":[2.02409E5,2.02408E5,2.02411E5,2.02407E5,-9.894917E-1,2.0241E5,2.02501E5,2.02406E5,6.825323E-1,2.1364953E-1,8.4421015E-1,2.02412E5,2.02502E5,2.02405E5,-4.681392E-1,-2.1515194E-1,-4.1856518E-1,3.7641773E-1,2.02503E5,2.02404E5,5.161515E-1,3.5316497E-2,5.4859318E-2,-4.915679E-3,-3.6543342E-1],"split_indices":[0,0,0,0,0,0,0,0,0,0,0,0,0,0,0,0,0,0,0,0,0,0,0,0,0],"split_type":[0,0,0,0,0,0,0,0,0,0,0,0,0,0,0,0,0,0,0,0,0,0,0,0,0],"sum_hessian":[7.68E3,6.569E3,1.111E3,6.398E3,1.71E2,3.13E2,7.98E2,6.239E3,1.59E2,1.55E2,1.58E2,3.16E2,4.82E2,6.071E3,1.68E2,1.62E2,1.54E2,1.61E2,3.21E2,5.906E3,1.65E2,1.62E2,1.59E2,5.741E3,1.65E2],"tree_param":{"num_deleted":"0","num_feature":"1","num_nodes":"25","size_leaf_vector":"1"}},{"base_weights":[-2.2436241E-5,-3.2478797E-1,2.4182715E-2,4.9419528E-1,-1.2484118E-2,-5.9119105E-1,2.8590132E-2,6.8384635E-1,-2.2570698E-2,-7.8871053E-1,3.8814645E-2,7.2626764E-1,-4.7195097E-3],"categories":[],"categories_nodes":[],"categories_segments":[],"categories_sizes":[],"default_left":[0,0,0,0,0,0,0,0,0,0,0,0,0],"id":27,"left_children":[1,-1,3,-1,5,-1,7,-1,9,-1,11,-1,-1],"loss_changes":[2.013037E2,0E0,4.4721786E2,0E0,5.9113385E2,0E0,8.290724E2,0E0,1.1264929E3,0E0,8.938514E2,0E0,0E0],"parents":[2147483647,0,0,2,2,4,4,6,6,8,8,10,10],"right_children":[2,-1,4,-1,6,-1,8,-1,10,-1,12,-1,-1],"split_conditions":[2.02105E5,-3.2478797E-1,2.02106E5,4.9419528E-1,2.02107E5,-5.9119105E-1,2.02108E5,6.8384635E-1,2.02109E5,-7.8871053E-1,2.0211E5,7.2626764E-1,-4.7195097E-3],"split_indices":[0,0,0,0,0,0,0,0,0,0,0,0,0],"split_type":[0,0,0,0,0,0,0,0,0,0,0,0,0],"sum_hessian":[7.68E3,1.67E2,7.513E3,1.65E2,7.348E3,1.5E2,7.198E3,1.59E2,7.039E3,1.61E2,6.878E3,1.53E2,6.725E3],"tree_param":{"num_deleted":"0","num_feature":"1","num_nodes":"13","size_leaf_vector":"1"}},{"base_weights":[1.8484967E-5,-2.3509037E-1,9.5819525E-2,7.366212E-2,-2.0524654E0,8.863202E-1,-1.142038E-2,-1.6483174E-1,8.232046E-1,-7.6632017E-1,-4.6690306E-1,2.2767906E-1,1.5859269E0,-4.535681E-1,1.20212644E-1,8.7184265E-2,-8.2615274E-1,1.0380237E-2,1.1937372E-1,6.081916E-1,3.4934482E-1,-2.0526797E-2,-1.0389149E0,1.0927407E0,-2.6957702E-2,-1.6278012E-1,6.688609E-1,-4.6471262E-1,4.2372358E-1,-6.019349E-1,-5.502827E-1,1.2330064E-1,1.4312965E0,-5.76704E-1,7.4767016E-2,2.3267206E-2,-4.7933373E-1,5.1414484E-1,3.4290668E-2,-9.4421096E-2,-1.827022E-1,3.5850725E-1,-8.9617506E-2,1.1182868E-1,-4.3744823E-1,5.350186E-1,3.086247E-1,2.0705158E-1,-1.1881811E-2],"categories":[],"categories_nodes":[],"categories_segments":[],"categories_sizes":[],"default_left":[0,0,0,0,0,0,0,0,0,0,0,0,0,0,0,0,0,0,0,0,0,0,0,0,0,0,0,0,0,0,0,0,0,0,0,0,0,0,0,0,0,0,0,0,0,0,0,0,0],"id":28,"left_children":[1,3,5,7,9,11,13,15,-1,-1,-1,17,19,21,23,25,-1,-1,-1,-1,-1,27,29,31,33,35,37,39,41,-1,43,-1,45,-1,47,-1,-1,-1,-1,-1,-1,-1,-1,-1,-1,-1,-1,-1,-1],"loss_changes":[1.7302686E2,1.24808E3,4.6270236E2,1.2117654E3,7.6458374E1,3.0007373E2,2.798279E2,1.140109E3,0E0,0E0,0E0,1.1062868E1,5.642041E1,2.795664E2,5.30316E2,2.3172858E2,0E0,0E0,0E0,0E0,0E0,1.25501274E2,2.2062433E2,1.11814575E2,6.2079236E2,3.8466962E2,2.773793E2,6.6900635E0,1.7755453E2,0E0,2.6284137E2,0E0,4.4229675E1,0E0,2.1512613E2,0E0,0E0,0E0,0E0,0E0,0E0,0E0,0E0,0E0,0E0,0E0,0E0,0E0,0E0],"parents":[2147483647,0,0,1,1,2,2,3,3,4,4,5,5,6,6,7,7,11,11,12,12,13,13,14,14,15,15,21,21,22,22,23,23,24,24,25,25,26,26,27,27,28,28,30,30,32,32,34,34],"right_children":[2,4,6,8,10,12,14,16,-1,-1,-1,18,20,22,24,26,-1,-1,-1,-1,-1,28,30,32,34,36,38,40,42,-1,44,-1,46,-1,48,-1,-1,-1,-1,-1,-1,-1,-1,-1,-1,-1,-1,-1,-1],"split_conditions":[2.02206E5,2.02204E5,2.0221E5,2.02203E5,2.02205E5,2.02208E5,2.02305E5,2.02202E5,8.232046E-1,-7.6632017E-1,-4.6690306E-1,2.02207E5,2.02209E5,2.02302E5,2.02308E5,2.02111E5,-8.2615274E-1,1.0380237E-2,1.1937372E-1,6.081916E-1,3.4934482E-1,2.02212E5,2.02303E5,2.02306E5,2.02309E5,2.0211E5,2.02112E5,2.02211E5,2.02301E5,-6.019349E-1,2.02304E5,1.2330064E-1,2.02307E5,-5.76704E-1,2.02312E5,2.3267206E-2,-4.7933373E-1,5.1414484E-1,3.4290668E-2,-9.4421096E-2,-1.827022E-1,3.5850725E-1,-8.9617506E-2,1.1182868E-1,-4.3744823E-1,5.350186E-1,3.086247E-1,2.0705158E-1,-1.1881811E-2],"split_indices":[0,0,0,0,0,0,0,0,0,0,0,0,0,0,0,0,0,0,0,0,0,0,0,0,0,0,0,0,0,0,0,0,0,0,0,0,0,0,0,0,0,0,0,0,0,0,0,0,0],"split_type":[0,0,0,0,0,0,0,0,0,0,0,0,0,0,0,0,0,0,0,0,0,0,0,0,0,0,0,0,0,0,0,0,0,0,0,0,0,0,0,0,0,0,0,0,0,0,0,0,0],"sum_hessian":[7.68E3,2.223E3,5.457E3,1.901E3,3.22E2,6.51E2,4.806E3,1.746E3,1.55E2,1.58E2,1.64E2,3.36E2,3.15E2,1.102E3,3.704E3,1.592E3,1.54E2,1.58E2,1.78E2,1.52E2,1.63E2,6.34E2,4.68E2,4.86E2,3.218E3,1.114E3,4.78E2,3.17E2,3.17E2,1.56E2,3.12E2,1.62E2,3.24E2,1.63E2,3.055E3,9.55E2,1.59E2,1.65E2,3.13E2,1.57E2,1.6E2,1.53E2,1.64E2,1.55E2,1.57E2,1.71E2,1.53E2,4.78E2,2.577E3],"tree_param":{"num_deleted":"0","num_feature":"1","num_nodes":"49","size_leaf_vector":"1"}},{"base_weights":[-4.237736E-5,-9.480728E-2,2.0688523E-1,1.3946746E-2,-1.0314285E0,8.46663E-1,5.0461758E-2,-4.725767E-2,9.4459814E-1,1.3886988E-1,1.0389026E0,-3.0808157E-1,3.1771174E-1,1.3629976E-2,-8.755939E-1,3.483257E-1,2.22986E-1,3.3445913E-1,2.8598955E-1,2.125604E-1,-6.894146E-1,1.2650409E0,-5.4977953E-2,-6.4178735E-2,1.0045118E0,-4.0475237E-1,-1.1987308E-1,-2.3701541E-1,4.8400396E-1,1.5491168E-1,5.974882E-1,-7.21124E-1,3.823373E-1,2.509106E-3,-1.4024594E-1,3.7545103E-1,2.1663855E-1,5.8017068E-2,-3.23579E-1,-1.4605343E-1,-2.8885278E-1,2.6914132E-1,3.664529E-2],"categories":[],"categories_nodes":[],"categories_segments":[],"categories_sizes":[],"default_left":[0,0,0,0,0,0,0,0,0,0,0,0,0,0,0,0,0,0,0,0,0,0,0,0,0,0,0,0,0,0,0,0,0,0,0,0,0,0,0,0,0,0,0],"id":29,"left_children":[1,3,5,7,-1,9,11,13,15,-1,17,19,21,23,25,-1,-1,-1,-1,27,-1,29,31,33,35,-1,-1,37,-1,-1,-1,39,41,-1,-1,-1,-1,-1,-1,-1,-1,-1,-1],"loss_changes":[1.5064E2,1.9158352E3,2.4144128E2,2.9076834E2,0E0,3.448822E1,1.8599002E2,2.415977E2,1.2865143E1,0E0,9.8550415E-1,8.593825E2,3.92672E2,3.4415836E2,7.340271E1,0E0,0E0,0E0,0E0,4.147642E2,0E0,1.697789E2,2.3303705E2,1.2109828E2,2.1763794E1,0E0,0E0,1.8095703E2,0E0,0E0,0E0,1.748285E1,6.458537E1,0E0,0E0,0E0,0E0,0E0,0E0,0E0,0E0,0E0,0E0],"parents":[2147483647,0,0,1,1,2,2,3,3,5,5,6,6,7,7,8,8,10,10,11,11,12,12,13,13,14,14,19,19,21,21,22,22,23,23,24,24,27,27,31,31,32,32],"right_children":[2,4,6,8,-1,10,12,14,16,-1,18,20,22,24,26,-1,-1,-1,-1,28,-1,30,32,34,36,-1,-1,38,-1,-1,-1,40,42,-1,-1,-1,-1,-1,-1,-1,-1,-1,-1],"split_conditions":[2.02401E5,2.02312E5,2.02404E5,2.0231E5,-1.0314285E0,2.02402E5,2.02409E5,2.02308E5,2.02311E5,1.3886988E-1,2.02403E5,2.02408E5,2.02411E5,2.02306E5,2.02309E5,3.483257E-1,2.22986E-1,3.3445913E-1,2.8598955E-1,2.02407E5,-6.894146E-1,2.0241E5,2.02501E5,2.02302E5,2.02307E5,-4.0475237E-1,-1.1987308E-1,2.02406E5,4.8400396E-1,1.5491168E-1,5.974882E-1,2.02412E5,2.02502E5,2.509106E-3,-1.4024594E-1,3.7545103E-1,2.1663855E-1,5.8017068E-2,-3.23579E-1,-1.4605343E-1,-2.8885278E-1,2.6914132E-1,3.664529E-2],"split_indices":[0,0,0,0,0,0,0,0,0,0,0,0,0,0,0,0,0,0,0,0,0,0,0,0,0,0,0,0,0,0,0,0,0,0,0,0,0,0,0,0,0,0,0],"split_type":[0,0,0,0,0,0,0,0,0,0,0,0,0,0,0,0,0,0,0,0,0,0,0,0,0,0,0,0,0,0,0,0,0,0,0,0,0,0,0,0,0,0,0],"sum_hessian":[7.68E3,5.268E3,2.412E3,5.103E3,1.65E2,4.73E2,1.939E3,4.789E3,3.14E2,1.59E2,3.14E2,8.28E2,1.111E3,4.462E3,3.27E2,1.49E2,1.65E2,1.6E2,1.54E2,6.57E2,1.71E2,3.13E2,7.98E2,4.138E3,3.24E2,1.63E2,1.64E2,4.98E2,1.59E2,1.55E2,1.58E2,3.16E2,4.82E2,3.508E3,6.3E2,1.71E2,1.53E2,3.3E2,1.68E2,1.62E2,1.54E2,1.61E2,3.21E2],"tree_param":{"num_deleted":"0","num_feature":"1","num_nodes":"43","size_leaf_vector":"1"}},{"base_weights":[2.4224148E-5,-2.3561877E-1,1.7584851E-2,3.391502E-1,-7.5562005E-3,-4.226855E-1,2.1839308E-2,4.7229707E-1,-1.3447528E-2,-5.61242E-1,3.029511E-2,5.021278E-1,-2.2015562E-3],"categories":[],"categories_nodes":[],"categories_segments":[],"categories_sizes":[],"default_left":[0,0,0,0,0,0,0,0,0,0,0,0,0],"id":30,"left_children":[1,-1,3,-1,5,-1,7,-1,9,-1,11,-1,-1],"loss_changes":[1.0595376E2,0E0,2.1024928E2,0E0,3.0277084E2,0E0,3.9439862E2,0E0,5.72027E2,0E0,4.2547516E2,0E0,0E0],"parents":[2147483647,0,0,2,2,4,4,6,6,8,8,10,10],"right_children":[2,-1,4,-1,6,-1,8,-1,10,-1,12,-1,-1],"split_conditions":[2.02105E5,-2.3561877E-1,2.02106E5,3.391502E-1,2.02107E5,-4.226855E-1,2.02108E5,4.7229707E-1,2.02109E5,-5.61242E-1,2.0211E5,5.021278E-1,-2.2015562E-3],"split_indices":[0,0,0,0,0,0,0,0,0,0,0,0,0],"split_type":[0,0,0,0,0,0,0,0,0,0,0,0,0],"sum_hessian":[7.68E3,1.67E2,7.513E3,1.65E2,7.348E3,1.5E2,7.198E3,1.59E2,7.039E3,1.61E2,6.878E3,1.53E2,6.725E3],"tree_param":{"num_deleted":"0","num_feature":"1","num_nodes":"13","size_leaf_vector":"1"}},{"base_weights":[2.6254414E-5,-1.7296205E-1,7.051471E-2,4.2443927E-2,-1.4408543E0,6.2179005E-1,-4.2724865E-3,-1.2575461E-1,5.77734E-1,-5.379599E-1,-3.277768E-1,1.5945353E-1,1.1128838E0,-1.5707916E-1,1.4739607E-1,5.0203256E-2,-5.800008E-1,7.195585E-3,8.366846E-2,4.2683768E-1,2.450928E-1,1.0749091E-2,-7.2320795E-1,5.964601E-1,3.760033E-2,-1.2977205E-1,4.6903887E-1,-2.5807622E-1,2.7360687E-1,9.8128915E-2,7.3138624E-1,-2.68154E-1,1.2468912E-1,1.0914849E-2,-3.365209E-1,2.664304E-1,-1.1398285E-1,-4.4054314E-3,-1.7611936E-1,1.847599E-1,4.0661967E-3,2.3539428E-1,2.0140338E-1,3.5054836E-1,5.096852E-3],"categories":[],"categories_nodes":[],"categories_segments":[],"categories_sizes":[],"default_left":[0,0,0,0,0,0,0,0,0,0,0,0,0,0,0,0,0,0,0,0,0,0,0,0,0,0,0,0,0,0,0,0,0,0,0,0,0,0,0,0,0,0,0,0,0],"id":31,"left_children":[1,3,5,7,9,11,13,15,-1,-1,-1,17,19,21,23,25,-1,-1,-1,-1,-1,27,-1,29,31,33,35,37,39,-1,41,-1,43,-1,-1,-1,-1,-1,-1,-1,-1,-1,-1,-1,-1],"loss_changes":[9.367183E1,6.074613E2,2.250269E2,6.027469E2,3.7675964E1,1.478595E2,1.1143003E2,5.557447E2,0E0,0E0,0E0,5.4461412E0,2.7816193E1,9.05863E2,1.189513E2,1.2014131E2,0E0,0E0,0E0,0E0,0E0,1.5764871E2,0E0,1.698793E1,1.574815E2,1.8381479E2,1.707543E2,8.831183E1,1.00389915E2,0E0,4.805603E-1,0E0,1.9952109E2,0E0,0E0,0E0,0E0,0E0,0E0,0E0,0E0,0E0,0E0,0E0,0E0],"parents":[2147483647,0,0,1,1,2,2,3,3,4,4,5,5,6,6,7,7,11,11,12,12,13,13,14,14,15,15,21,21,23,23,24,24,25,25,26,26,27,27,28,28,30,30,32,32],"right_children":[2,4,6,8,10,12,14,16,-1,-1,-1,18,20,22,24,26,-1,-1,-1,-1,-1,28,-1,30,32,34,36,38,40,-1,42,-1,44,-1,-1,-1,-1,-1,-1,-1,-1,-1,-1,-1,-1],"split_conditions":[2.02206E5,2.02204E5,2.0221E5,2.02203E5,2.02205E5,2.02208E5,2.02401E5,2.02202E5,5.77734E-1,-5.379599E-1,-3.277768E-1,2.02207E5,2.02209E5,2.02312E5,2.02404E5,2.02111E5,-5.800008E-1,7.195585E-3,8.366846E-2,4.2683768E-1,2.450928E-1,2.02305E5,-7.2320795E-1,2.02402E5,2.02405E5,2.0211E5,2.02201E5,2.02302E5,2.02308E5,9.8128915E-2,2.02403E5,-2.68154E-1,2.02406E5,1.0914849E-2,-3.365209E-1,2.664304E-1,-1.1398285E-1,-4.4054314E-3,-1.7611936E-1,1.847599E-1,4.0661967E-3,2.3539428E-1,2.0140338E-1,3.5054836E-1,5.096852E-3],"split_indices":[0,0,0,0,0,0,0,0,0,0,0,0,0,0,0,0,0,0,0,0,0,0,0,0,0,0,0,0,0,0,0,0,0,0,0,0,0,0,0,0,0,0,0,0,0],"split_type":[0,0,0,0,0,0,0,0,0,0,0,0,0,0,0,0,0,0,0,0,0,0,0,0,0,0,0,0,0,0,0,0,0,0,0,0,0,0,0,0,0,0,0,0,0],"sum_hessian":[7.68E3,2.223E3,5.457E3,1.901E3,3.22E2,6.51E2,4.806E3,1.746E3,1.55E2,1.58E2,1.64E2,3.36E2,3.15E2,2.394E3,2.412E3,1.592E3,1.54E2,1.58E2,1.78E2,1.52E2,1.63E2,2.229E3,1.65E2,4.73E2,1.939E3,1.114E3,4.78E2,1.102E3,1.127E3,1.59E2,3.14E2,1.65E2,1.774E3,9.55E2,1.59E2,3.2E2,1.58E2,6.34E2,4.68E2,4.86E2,6.41E2,1.6E2,1.54E2,1.65E2,1.609E3],"tree_param":{"num_deleted":"0","num_feature":"1","num_nodes":"45","size_leaf_vector":"1"}},{"base_weights":[-3.0467914E-5,-3.728254E-2,2.20065E-1,5.144954E-3,-4.8465502E-1,8.850462E-1,-4.1542195E-2,-2.3684915E-2,3.3884335E-1,1.0787348E-1,4.1851E-1,-5.090505E-1,2.6537636E-1,-3.1925698E-3,-2.2794424E-1,-1.03369534E-1,-2.0362239E-1,1.8803701E-1,8.2723014E-2,-2.6327115E-2,2.4601625E-1,1.7946078E-2,3.1661455E-2,-2.6845385E-3,-1.8819073E-1],"categories":[],"categories_nodes":[],"categories_segments":[],"categories_sizes":[],"default_left":[0,0,0,0,0,0,0,0,0,0,0,0,0,0,0,0,0,0,0,0,0,0,0,0,0],"id":32,"left_children":[1,3,5,7,-1,9,11,13,-1,-1,-1,15,17,19,-1,-1,-1,-1,21,23,-1,-1,-1,-1,-1],"loss_changes":[6.298482E1,4.3993893E2,1.9348456E2,2.0744627E2,0E0,8.36447E1,1.1478118E2,9.412805E1,0E0,0E0,0E0,8.614128E0,3.1832626E1,1.1566548E2,0E0,0E0,0E0,0E0,1.6194129E-1,6.168793E1,0E0,0E0,0E0,0E0,0E0],"parents":[2147483647,0,0,1,1,2,2,3,3,5,5,6,6,7,7,11,11,12,12,13,13,18,18,19,19],"right_children":[2,4,6,8,-1,10,12,14,-1,-1,-1,16,18,20,-1,-1,-1,-1,22,24,-1,-1,-1,-1,-1],"split_conditions":[2.02409E5,2.02408E5,2.02411E5,2.02407E5,-4.8465502E-1,2.0241E5,2.02501E5,2.02406E5,3.3884335E-1,1.0787348E-1,4.1851E-1,2.02412E5,2.02502E5,2.02405E5,-2.2794424E-1,-1.03369534E-1,-2.0362239E-1,1.8803701E-1,2.02503E5,2.02404E5,2.4601625E-1,1.7946078E-2,3.1661455E-2,-2.6845385E-3,-1.8819073E-1],"split_indices":[0,0,0,0,0,0,0,0,0,0,0,0,0,0,0,0,0,0,0,0,0,0,0,0,0],"split_type":[0,0,0,0,0,0,0,0,0,0,0,0,0,0,0,0,0,0,0,0,0,0,0,0,0],"sum_hessian":[7.68E3,6.569E3,1.111E3,6.398E3,1.71E2,3.13E2,7.98E2,6.239E3,1.59E2,1.55E2,1.58E2,3.16E2,4.82E2,6.071E3,1.68E2,1.62E2,1.54E2,1.61E2,3.21E2,5.906E3,1.65E2,1.62E2,1.59E2,5.741E3,1.65E2],"tree_param":{"num_deleted":"0","num_feature":"1","num_nodes":"25","size_leaf_vector":"1"}},{"base_weights":[-2.922234E-6,-1.6780394E-1,1.2503028E-2,2.35562E-1,-4.952585E-3,-2.9917133E-1,1.5861418E-2,3.2903847E-1,-8.707502E-3,-3.9636377E-1,2.2203173E-2,3.5001093E-1,-1.2014562E-3],"categories":[],"categories_nodes":[],"categories_segments":[],"categories_sizes":[],"default_left":[0,0,0,0,0,0,0,0,0,0,0,0,0],"id":33,"left_children":[1,-1,3,-1,5,-1,7,-1,9,-1,11,-1,-1],"loss_changes":[5.373653E1,0E0,1.0135284E2,0E0,1.5179787E2,0E0,1.9119604E2,0E0,2.8564505E2,0E0,2.0634085E2,0E0,0E0],"parents":[2147483647,0,0,2,2,4,4,6,6,8,8,10,10],"right_children":[2,-1,4,-1,6,-1,8,-1,10,-1,12,-1,-1],"split_conditions":[2.02105E5,-1.6780394E-1,2.02106E5,2.35562E-1,2.02107E5,-2.9917133E-1,2.02108E5,3.2903847E-1,2.02109E5,-3.9636377E-1,2.0211E5,3.5001093E-1,-1.2014562E-3],"split_indices":[0,0,0,0,0,0,0,0,0,0,0,0,0],"split_type":[0,0,0,0,0,0,0,0,0,0,0,0,0],"sum_hessian":[7.68E3,1.67E2,7.513E3,1.65E2,7.348E3,1.5E2,7.198E3,1.59E2,7.039E3,1.61E2,6.878E3,1.53E2,6.725E3],"tree_param":{"num_deleted":"0","num_feature":"1","num_nodes":"13","size_leaf_vector":"1"}},{"base_weights":[-5.562376E-6,-1.2178772E-1,4.9617656E-2,2.8673278E-2,-1.0074071E0,4.4028762E-1,-3.3813945E-3,-8.9832604E-2,4.0668106E-1,-3.7643036E-1,-2.2888073E-1,1.1574158E-1,7.850083E-1,-1.0638013E-1,9.8850414E-2,3.3153947E-2,-4.0597123E-1,6.2055485E-3,5.9859175E-2,3.007764E-1,1.7317075E-1,1.1402085E-2,-5.063983E-1,4.225226E-1,1.9716667E-2,-9.548537E-2,3.3252698E-1,-9.606456E-2,6.65036E-1,7.0034124E-2,5.172196E-1,-1.6263428E-1,1.5564223E-1,5.9278198E-3,-2.3504283E-1,2.824575E-1,2.8540837E-3,3.1799078E-3,-1.8375239E-1,2.4512428E-1,1.5709195E-1,1.6637295E-1,1.4252393E-1,2.7340319E-2,-3.3975047E-1,1.8671641E-1,-8.393868E-3],"categories":[],"categories_nodes":[],"categories_segments":[],"categories_sizes":[],"default_left":[0,0,0,0,0,0,0,0,0,0,0,0,0,0,0,0,0,0,0,0,0,0,0,0,0,0,0,0,0,0,0,0,0,0,0,0,0,0,0,0,0,0,0,0,0,0,0],"id":34,"left_children":[1,3,5,7,9,11,13,15,-1,-1,-1,17,19,21,23,25,-1,-1,-1,-1,-1,27,-1,29,31,33,35,37,39,-1,41,43,45,-1,-1,-1,-1,-1,-1,-1,-1,-1,-1,-1,-1,-1,-1],"loss_changes":[4.6424038E1,2.9637946E2,1.1301013E2,2.992094E2,1.8575378E1,7.2853424E1,5.0627007E1,2.7149686E2,0E0,0E0,0E0,2.6799703E0,1.3706696E1,4.461743E2,6.1796776E1,6.138E1,0E0,0E0,0E0,0E0,0E0,1.5670766E2,0E0,8.36618E0,4.8110455E1,8.842085E1,9.42173E1,1.0555135E2,6.3441925E0,0E0,2.3240662E-1,2.0413829E2,9.532103E1,0E0,0E0,0E0,0E0,0E0,0E0,0E0,0E0,0E0,0E0,0E0,0E0,0E0,0E0],"parents":[2147483647,0,0,1,1,2,2,3,3,4,4,5,5,6,6,7,7,11,11,12,12,13,13,14,14,15,15,21,21,23,23,24,24,25,25,26,26,27,27,28,28,30,30,31,31,32,32],"right_children":[2,4,6,8,10,12,14,16,-1,-1,-1,18,20,22,24,26,-1,-1,-1,-1,-1,28,-1,30,32,34,36,38,40,-1,42,44,46,-1,-1,-1,-1,-1,-1,-1,-1,-1,-1,-1,-1,-1,-1],"split_conditions":[2.02206E5,2.02204E5,2.0221E5,2.02203E5,2.02205E5,2.02208E5,2.02401E5,2.02202E5,4.0668106E-1,-3.7643036E-1,-2.2888073E-1,2.02207E5,2.02209E5,2.02312E5,2.02404E5,2.02111E5,-4.0597123E-1,6.2055485E-3,5.9859175E-2,3.007764E-1,1.7317075E-1,2.0231E5,-5.063983E-1,2.02402E5,2.02409E5,2.0211E5,2.02112E5,2.02308E5,2.02311E5,7.0034124E-2,2.02403E5,2.02408E5,2.02411E5,5.9278198E-3,-2.3504283E-1,2.824575E-1,2.8540837E-3,3.1799078E-3,-1.8375239E-1,2.4512428E-1,1.5709195E-1,1.6637295E-1,1.4252393E-1,2.7340319E-2,-3.3975047E-1,1.8671641E-1,-8.393868E-3],"split_indices":[0,0,0,0,0,0,0,0,0,0,0,0,0,0,0,0,0,0,0,0,0,0,0,0,0,0,0,0,0,0,0,0,0,0,0,0,0,0,0,0,0,0,0,0,0,0,0],"split_type":[0,0,0,0,0,0,0,0,0,0,0,0,0,0,0,0,0,0,0,0,0,0,0,0,0,0,0,0,0,0,0,0,0,0,0,0,0,0,0,0,0,0,0,0,0,0,0],"sum_hessian":[7.68E3,2.223E3,5.457E3,1.901E3,3.22E2,6.51E2,4.806E3,1.746E3,1.55E2,1.58E2,1.64E2,3.36E2,3.15E2,2.394E3,2.412E3,1.592E3,1.54E2,1.58E2,1.78E2,1.52E2,1.63E2,2.229E3,1.65E2,4.73E2,1.939E3,1.114E3,4.78E2,1.915E3,3.14E2,1.59E2,3.14E2,8.28E2,1.111E3,9.55E2,1.59E2,1.65E2,3.13E2,1.588E3,3.27E2,1.49E2,1.65E2,1.6E2,1.54E2,6.57E2,1.71E2,3.13E2,7.98E2],"tree_param":{"num_deleted":"0","num_feature":"1","num_nodes":"47","size_leaf_vector":"1"}},{"base_weights":[-7.64032E-6,-1.1952881E-1,8.900378E-3,1.6355246E-1,-3.214258E-3,-2.1178074E-1,1.1525867E-2,2.291782E-1,-5.5758045E-3,-2.799528E-1,1.6269928E-2,2.4392657E-1,-5.9298845E-4],"categories":[],"categories_nodes":[],"categories_segments":[],"categories_sizes":[],"default_left":[0,0,0,0,0,0,0,0,0,0,0,0,0],"id":35,"left_children":[1,-1,3,-1,5,-1,7,-1,9,-1,11,-1,-1],"loss_changes":[2.726455E1,0E0,4.8818485E1,0E0,7.613056E1,0E0,9.263612E1,0E0,1.4267447E2,0E0,1.0001673E2,0E0,0E0],"parents":[2147483647,0,0,2,2,4,4,6,6,8,8,10,10],"right_children":[2,-1,4,-1,6,-1,8,-1,10,-1,12,-1,-1],"split_conditions":[2.02105E5,-1.1952881E-1,2.02106E5,1.6355246E-1,2.02107E5,-2.1178074E-1,2.02108E5,2.291782E-1,2.02109E5,-2.799528E-1,2.0211E5,2.4392657E-1,-5.9298845E-4],"split_indices":[0,0,0,0,0,0,0,0,0,0,0,0,0],"split_type":[0,0,0,0,0,0,0,0,0,0,0,0,0],"sum_hessian":[7.68E3,1.67E2,7.513E3,1.65E2,7.348E3,1.5E2,7.198E3,1.59E2,7.039E3,1.61E2,6.878E3,1.53E2,6.725E3],"tree_param":{"num_deleted":"0","num_feature":"1","num_nodes":"13","size_leaf_vector":"1"}},{"base_weights":[-1.442046E-5,-8.69405E-2,3.5405807E-2,1.83156E-2,-7.0647657E-1,3.096196E-1,-1.79469E-3,-6.5078996E-2,2.8563324E-1,-2.6403674E-1,-1.6045904E-1,8.180694E-2,5.515919E-1,-2.2369307E-1,4.190046E-2,2.0997828E-2,-2.8479204E-1,4.5306515E-3,4.2180497E-2,2.1130465E-1,1.2171526E-1,-9.018497E-3,-3.2716143E-1,1.7383981E-1,2.0175414E-2,-7.049436E-2,2.3392642E-1,-3.208133E-1,3.0280468E-1,-2.1169926E-1,5.112345E-2,2.9152797E-3,-1.6479607E-1,1.441131E-1,-7.952878E-2,-6.4672016E-2,-1.2662989E-1,2.532492E-1,-6.1289757E-2,1.2983112E-1,-1.989449E-3],"categories":[],"categories_nodes":[],"categories_segments":[],"categories_sizes":[],"default_left":[0,0,0,0,0,0,0,0,0,0,0,0,0,0,0,0,0,0,0,0,0,0,0,0,0,0,0,0,0,0,0,0,0,0,0,0,0,0,0,0,0],"id":36,"left_children":[1,3,5,7,9,11,13,15,-1,-1,-1,17,19,21,23,25,-1,-1,-1,-1,-1,27,-1,-1,29,31,33,35,37,-1,39,-1,-1,-1,-1,-1,-1,-1,-1,-1,-1],"loss_changes":[2.365243E1,1.4503987E2,5.5677013E1,1.4817732E2,9.154617E0,3.5895954E1,4.6617485E1,1.3298674E2,0E0,0E0,0E0,1.3195527E0,6.75576E0,1.4718701E2,4.690139E1,3.1050203E1,0E0,0E0,0E0,0E0,0E0,6.183492E1,0E0,0E0,8.6789375E1,4.282977E1,5.9036835E1,3.298687E0,8.747154E1,0E0,8.166847E1,0E0,0E0,0E0,0E0,0E0,0E0,0E0,0E0,0E0,0E0],"parents":[2147483647,0,0,1,1,2,2,3,3,4,4,5,5,6,6,7,7,11,11,12,12,13,13,14,14,15,15,21,21,24,24,25,25,26,26,27,27,28,28,30,30],"right_children":[2,4,6,8,10,12,14,16,-1,-1,-1,18,20,22,24,26,-1,-1,-1,-1,-1,28,-1,-1,30,32,34,36,38,-1,40,-1,-1,-1,-1,-1,-1,-1,-1,-1,-1],"split_conditions":[2.02206E5,2.02204E5,2.0221E5,2.02203E5,2.02205E5,2.02208E5,2.02303E5,2.02202E5,2.8563324E-1,-2.6403674E-1,-1.6045904E-1,2.02207E5,2.02209E5,2.02302E5,2.02304E5,2.02111E5,-2.8479204E-1,4.5306515E-3,4.2180497E-2,2.1130465E-1,1.2171526E-1,2.02212E5,-3.2716143E-1,1.7383981E-1,2.02305E5,2.0211E5,2.02201E5,2.02211E5,2.02301E5,-2.1169926E-1,2.02308E5,2.9152797E-3,-1.6479607E-1,1.441131E-1,-7.952878E-2,-6.4672016E-2,-1.2662989E-1,2.532492E-1,-6.1289757E-2,1.2983112E-1,-1.989449E-3],"split_indices":[0,0,0,0,0,0,0,0,0,0,0,0,0,0,0,0,0,0,0,0,0,0,0,0,0,0,0,0,0,0,0,0,0,0,0,0,0,0,0,0,0],"split_type":[0,0,0,0,0,0,0,0,0,0,0,0,0,0,0,0,0,0,0,0,0,0,0,0,0,0,0,0,0,0,0,0,0,0,0,0,0,0,0,0,0],"sum_hessian":[7.68E3,2.223E3,5.457E3,1.901E3,3.22E2,6.51E2,4.806E3,1.746E3,1.55E2,1.58E2,1.64E2,3.36E2,3.15E2,7.9E2,4.016E3,1.592E3,1.54E2,1.58E2,1.78E2,1.52E2,1.63E2,6.34E2,1.56E2,1.55E2,3.861E3,1.114E3,4.78E2,3.17E2,3.17E2,1.57E2,3.704E3,9.55E2,1.59E2,3.2E2,1.58E2,1.57E2,1.6E2,1.53E2,1.64E2,4.86E2,3.218E3],"tree_param":{"num_deleted":"0","num_feature":"1","num_nodes":"41","size_leaf_vector":"1"}},{"base_weights":[-6.196089E-5,-1.3375682E-2,1.9837601E-1,1.9086389E-3,-3.4520093E-1,1.3559107E-1,7.017527E-2,-1.6898248E-2,2.3920356E-1,-6.892919E-2,-1.3931066E-1,1.6217135E-2,2.5847113E-2,1.8124313E-3,-3.8299224E-1,-1.7867558E-2,2.307962E-1,-2.3765211E-1,2.1183483E-2,-8.6046377E-4,-1.6700198E-1],"categories":[],"categories_nodes":[],"categories_segments":[],"categories_sizes":[],"default_left":[0,0,0,0,0,0,0,0,0,0,0,0,0,0,0,0,0,0,0,0,0],"id":37,"left_children":[1,3,5,7,9,-1,11,13,-1,-1,-1,-1,-1,15,17,19,-1,-1,-1,-1,-1],"loss_changes":[2.0295456E1,3.6511997E1,1.5671082E1,1.0298097E2,4.2540817E0,0E0,7.8288674E-2,4.6066048E1,0E0,0E0,0E0,0E0,0E0,9.666779E1,6.0749195E1,5.0428413E1,0E0,0E0,0E0,0E0,0E0],"parents":[2147483647,0,0,1,1,2,2,3,3,4,4,6,6,7,7,13,13,14,14,15,15],"right_children":[2,4,6,8,10,-1,12,14,-1,-1,-1,-1,-1,16,18,20,-1,-1,-1,-1,-1],"split_conditions":[2.02501E5,2.02411E5,2.02502E5,2.0241E5,2.02412E5,1.3559107E-1,2.02503E5,2.02408E5,2.3920356E-1,-6.892919E-2,-1.3931066E-1,1.6217135E-2,2.5847113E-2,2.02407E5,2.02409E5,2.02406E5,2.307962E-1,-2.3765211E-1,2.1183483E-2,-8.6046377E-4,-1.6700198E-1],"split_indices":[0,0,0,0,0,0,0,0,0,0,0,0,0,0,0,0,0,0,0,0,0],"split_type":[0,0,0,0,0,0,0,0,0,0,0,0,0,0,0,0,0,0,0,0,0],"sum_hessian":[7.68E3,7.198E3,4.82E2,6.882E3,3.16E2,1.61E2,3.21E2,6.724E3,1.58E2,1.62E2,1.54E2,1.62E2,1.59E2,6.398E3,3.26E2,6.239E3,1.59E2,1.71E2,1.55E2,6.071E3,1.68E2],"tree_param":{"num_deleted":"0","num_feature":"1","num_nodes":"21","size_leaf_vector":"1"}},{"base_weights":[-4.1137744E-5,-3.214493E-2,7.006036E-2,5.2338215E-3,-3.543706E-1,2.9997212E-1,1.3849931E-2,-2.5344951E-2,4.702087E-1,5.017336E-2,3.6643702E-1,-1.3884954E-1,5.842194E-2,4.0997732E-3,-4.2591342E-1,1.7309791E-1,1.1126529E-1,1.17787E-1,1.0106187E-1,1.658788E-1,7.3991762E-3,-2.664916E-2,3.9568666E-1,-2.2765844E-1,-2.772059E-2,-1.1720075E-1,5.4046992E-2,2.539863E-3,-5.230957E-2,1.709368E-1,5.9599496E-2,1.6198632E-1,-1.9774607E-3],"categories":[],"categories_nodes":[],"categories_segments":[],"categories_sizes":[],"default_left":[0,0,0,0,0,0,0,0,0,0,0,0,0,0,0,0,0,0,0,0,0,0,0,0,0,0,0,0,0,0,0,0,0],"id":38,"left_children":[1,3,5,7,-1,9,11,13,15,-1,17,-1,19,21,23,-1,-1,-1,-1,-1,25,27,29,-1,-1,-1,31,-1,-1,-1,-1,-1,-1],"loss_changes":[1.7288527E1,2.2631795E2,3.1180103E1,7.258243E1,0E0,4.1202126E0,4.1245564E1,5.6498016E1,3.1269836E0,0E0,1.1159897E-1,0E0,4.4781174E1,5.3748985E1,3.635165E1,0E0,0E0,0E0,0E0,0E0,2.991723E1,2.1470898E1,1.1034946E1,0E0,0E0,0E0,4.249167E1,0E0,0E0,0E0,0E0,0E0,0E0],"parents":[2147483647,0,0,1,1,2,2,3,3,5,5,6,6,7,7,8,8,10,10,12,12,13,13,14,14,20,20,21,21,22,22,26,26],"right_children":[2,4,6,8,-1,10,12,14,16,-1,18,-1,20,22,24,-1,-1,-1,-1,-1,26,28,30,-1,-1,-1,32,-1,-1,-1,-1,-1,-1],"split_conditions":[2.02401E5,2.02312E5,2.02404E5,2.0231E5,-3.543706E-1,2.02402E5,2.02405E5,2.02308E5,2.02311E5,5.017336E-2,2.02403E5,-1.3884954E-1,2.02406E5,2.02306E5,2.02309E5,1.7309791E-1,1.1126529E-1,1.17787E-1,1.0106187E-1,1.658788E-1,2.02407E5,2.02301E5,2.02307E5,-2.2765844E-1,-2.772059E-2,-1.1720075E-1,2.02408E5,2.539863E-3,-5.230957E-2,1.709368E-1,5.9599496E-2,1.6198632E-1,-1.9774607E-3],"split_indices":[0,0,0,0,0,0,0,0,0,0,0,0,0,0,0,0,0,0,0,0,0,0,0,0,0,0,0,0,0,0,0,0,0],"split_type":[0,0,0,0,0,0,0,0,0,0,0,0,0,0,0,0,0,0,0,0,0,0,0,0,0,0,0,0,0,0,0,0,0],"sum_hessian":[7.68E3,5.268E3,2.412E3,5.103E3,1.65E2,4.73E2,1.939E3,4.789E3,3.14E2,1.59E2,3.14E2,1.65E2,1.774E3,4.462E3,3.27E2,1.49E2,1.65E2,1.6E2,1.54E2,1.65E2,1.609E3,4.138E3,3.24E2,1.63E2,1.64E2,1.68E2,1.441E3,3.344E3,7.94E2,1.71E2,1.53E2,1.59E2,1.282E3],"tree_param":{"num_deleted":"0","num_feature":"1","num_nodes":"33","size_leaf_vector":"1"}},{"base_weights":[-6.4761946E-7,-8.525549E-2,6.3532204E-3,1.1341134E-1,-2.043295E-3,-1.5003775E-1,8.404337E-3,1.5948038E-1,-3.4876952E-3,-1.978648E-1,1.1963019E-2,1.6984734E-1,-2.1831774E-4],"categories":[],"categories_nodes":[],"categories_segments":[],"categories_sizes":[],"default_left":[0,0,0,0,0,0,0,0,0,0,0,0,0],"id":39,"left_children":[1,-1,3,-1,5,-1,7,-1,9,-1,11,-1,-1],"loss_changes":[1.3871153E1,0E0,2.3450876E1,0E0,3.8246807E1,0E0,4.479313E1,0E0,7.1369705E1,0E0,4.838141E1,0E0,0E0],"parents":[2147483647,0,0,2,2,4,4,6,6,8,8,10,10],"right_children":[2,-1,4,-1,6,-1,8,-1,10,-1,12,-1,-1],"split_conditions":[2.02105E5,-8.525549E-2,2.02106E5,1.1341134E-1,2.02107E5,-1.5003775E-1,2.02108E5,1.5948038E-1,2.02109E5,-1.978648E-1,2.0211E5,1.6984734E-1,-2.1831774E-4],"split_indices":[0,0,0,0,0,0,0,0,0,0,0,0,0],"split_type":[0,0,0,0,0,0,0,0,0,0,0,0,0],"sum_hessian":[7.68E3,1.67E2,7.513E3,1.65E2,7.348E3,1.5E2,7.198E3,1.59E2,7.039E3,1.61E2,6.878E3,1.53E2,6.725E3],"tree_param":{"num_deleted":"0","num_feature":"1","num_nodes":"13","size_leaf_vector":"1"}},{"base_weights":[-3.4784714E-6,-6.3310586E-2,2.5792604E-2,1.0424801E-2,-4.9730873E-1,2.1586183E-1,7.0977017E-6,-4.819654E-2,2.0005257E-1,-1.8575995E-1,-1.13050826E-1,5.5952486E-2,3.8571495E-1,-1.3628085E-1,2.6843982E-2,1.2122864E-2,-2.0034404E-1,2.7475033E-3,2.9161695E-2,1.4789176E-1,8.498988E-2,6.384325E-3,-2.1373034E-1,1.3793647E-1,9.348865E-3,-5.2459486E-2,1.6243017E-1,-2.266398E-1,2.3938838E-1,-1.3267858E-1,2.8605316E-2,1.0761804E-3,-1.1610329E-1,1.5499233E-1,-7.6035424E-3,-4.5830227E-2,-8.9318395E-2,1.7733593E-1,-2.7103523E-2,7.28815E-2,-1.1489528E-3],"categories":[],"categories_nodes":[],"categories_segments":[],"categories_sizes":[],"default_left":[0,0,0,0,0,0,0,0,0,0,0,0,0,0,0,0,0,0,0,0,0,0,0,0,0,0,0,0,0,0,0,0,0,0,0,0,0,0,0,0,0],"id":40,"left_children":[1,3,5,7,9,11,13,15,-1,-1,-1,17,19,21,23,25,-1,-1,-1,-1,-1,27,-1,-1,29,31,33,35,37,-1,39,-1,-1,-1,-1,-1,-1,-1,-1,-1,-1],"loss_changes":[1.2545285E1,7.117545E1,2.6749826E1,7.32212E1,4.5097733E0,1.7687458E1,1.7585472E1,6.530208E1,0E0,0E0,0E0,6.4965665E-1,3.331543E0,6.502241E1,3.0422106E1,1.5472088E1,0E0,0E0,0E0,0E0,0E0,3.453194E1,0E0,0E0,3.359823E1,2.0908222E1,3.1872374E1,1.6244793E0,3.693428E1,0E0,2.5757812E1,0E0,0E0,0E0,0E0,0E0,0E0,0E0,0E0,0E0,0E0],"parents":[2147483647,0,0,1,1,2,2,3,3,4,4,5,5,6,6,7,7,11,11,12,12,13,13,14,14,15,15,21,21,24,24,25,25,26,26,27,27,28,28,30,30],"right_children":[2,4,6,8,10,12,14,16,-1,-1,-1,18,20,22,24,26,-1,-1,-1,-1,-1,28,-1,-1,30,32,34,36,38,-1,40,-1,-1,-1,-1,-1,-1,-1,-1,-1,-1],"split_conditions":[2.02206E5,2.02204E5,2.0221E5,2.02203E5,2.02205E5,2.02208E5,2.02303E5,2.02202E5,2.0005257E-1,-1.8575995E-1,-1.13050826E-1,2.02207E5,2.02209E5,2.02302E5,2.02304E5,2.02111E5,-2.0034404E-1,2.7475033E-3,2.9161695E-2,1.4789176E-1,8.498988E-2,2.02212E5,-2.1373034E-1,1.3793647E-1,2.02305E5,2.0211E5,2.02112E5,2.02211E5,2.02301E5,-1.3267858E-1,2.02308E5,1.0761804E-3,-1.1610329E-1,1.5499233E-1,-7.6035424E-3,-4.5830227E-2,-8.9318395E-2,1.7733593E-1,-2.7103523E-2,7.28815E-2,-1.1489528E-3],"split_indices":[0,0,0,0,0,0,0,0,0,0,0,0,0,0,0,0,0,0,0,0,0,0,0,0,0,0,0,0,0,0,0,0,0,0,0,0,0,0,0,0,0],"split_type":[0,0,0,0,0,0,0,0,0,0,0,0,0,0,0,0,0,0,0,0,0,0,0,0,0,0,0,0,0,0,0,0,0,0,0,0,0,0,0,0,0],"sum_hessian":[7.68E3,2.223E3,5.457E3,1.901E3,3.22E2,6.51E2,4.806E3,1.746E3,1.55E2,1.58E2,1.64E2,3.36E2,3.15E2,7.9E2,4.016E3,1.592E3,1.54E2,1.58E2,1.78E2,1.52E2,1.63E2,6.34E2,1.56E2,1.55E2,3.861E3,1.114E3,4.78E2,3.17E2,3.17E2,1.57E2,3.704E3,9.55E2,1.59E2,1.65E2,3.13E2,1.57E2,1.6E2,1.53E2,1.64E2,4.86E2,3.218E3],"tree_param":{"num_deleted":"0","num_feature":"1","num_nodes":"41","size_leaf_vector":"1"}},{"base_weights":[-1.3139126E-5,-9.580574E-3,1.4258723E-1,9.844613E-4,-2.3894826E-1,9.616513E-2,5.2610125E-2,-1.2303154E-2,1.6889578E-1,-4.737363E-2,-9.678761E-2,1.2388546E-2,1.9142533E-2,6.3316704E-4,-2.654139E-1,-9.10308E-3,1.1410286E-1,-1.6577406E-1,1.5872017E-2,-5.285535E-4,-8.1843734E-2],"categories":[],"categories_nodes":[],"categories_segments":[],"categories_sizes":[],"default_left":[0,0,0,0,0,0,0,0,0,0,0,0,0,0,0,0,0,0,0,0,0],"id":41,"left_children":[1,3,5,7,9,-1,11,13,-1,-1,-1,-1,-1,15,17,19,-1,-1,-1,-1,-1],"loss_changes":[1.0480705E1,1.744541E1,7.717228E0,5.1406822E1,2.0985909E0,0E0,3.816527E-2,2.2019983E1,0E0,0E0,0E0,0E0,0E0,2.3660229E1,2.9920614E1,1.2079864E1,0E0,0E0,0E0,0E0,0E0],"parents":[2147483647,0,0,1,1,2,2,3,3,4,4,6,6,7,7,13,13,14,14,15,15],"right_children":[2,4,6,8,10,-1,12,14,-1,-1,-1,-1,-1,16,18,20,-1,-1,-1,-1,-1],"split_conditions":[2.02501E5,2.02411E5,2.02502E5,2.0241E5,2.02412E5,9.616513E-2,2.02503E5,2.02408E5,1.6889578E-1,-4.737363E-2,-9.678761E-2,1.2388546E-2,1.9142533E-2,2.02407E5,2.02409E5,2.02406E5,1.1410286E-1,-1.6577406E-1,1.5872017E-2,-5.285535E-4,-8.1843734E-2],"split_indices":[0,0,0,0,0,0,0,0,0,0,0,0,0,0,0,0,0,0,0,0,0],"split_type":[0,0,0,0,0,0,0,0,0,0,0,0,0,0,0,0,0,0,0,0,0],"sum_hessian":[7.68E3,7.198E3,4.82E2,6.882E3,3.16E2,1.61E2,3.21E2,6.724E3,1.58E2,1.62E2,1.54E2,1.62E2,1.59E2,6.398E3,3.26E2,6.239E3,1.59E2,1.71E2,1.55E2,6.071E3,1.68E2],"tree_param":{"num_deleted":"0","num_feature":"1","num_nodes":"21","size_leaf_vector":"1"}},{"base_weights":[-1.1269771E-5,-2.2652807E-2,4.942854E-2,3.5158235E-3,-2.4813686E-1,2.1243225E-1,9.576385E-3,-1.8082388E-2,3.319346E-1,3.577921E-2,2.590814E-1,-9.687935E-2,4.0667467E-2,2.422944E-3,-2.970373E-1,1.22078985E-1,7.8650445E-2,8.323341E-2,7.150074E-2,1.1697497E-1,4.6326728E-3,-1.8187582E-2,1.7073022E-1,-1.5921374E-1,-1.8893462E-2,-1.1290351E-1,5.737181E-2,-1.8351375E-3,-9.297076E-2,6.530629E-2,2.0333655E-2,9.47335E-3,-1.1633091E-1,6.556454E-2,-1.8123031E-3],"categories":[],"categories_nodes":[],"categories_segments":[],"categories_sizes":[],"default_left":[0,0,0,0,0,0,0,0,0,0,0,0,0,0,0,0,0,0,0,0,0,0,0,0,0,0,0,0,0,0,0,0,0,0,0],"id":42,"left_children":[1,3,5,7,-1,9,11,13,15,-1,17,-1,19,21,23,-1,-1,-1,-1,-1,25,27,29,-1,-1,31,33,-1,-1,-1,-1,-1,-1,-1,-1],"loss_changes":[8.599179E0,1.10925255E2,1.5672934E1,3.6209995E1,0E0,2.0292072E0,2.006889E1,2.7399824E1,1.5414429E0,0E0,5.3878784E-2,0E0,2.233678E1,1.5484813E1,1.7906136E1,0E0,0E0,0E0,0E0,0E0,9.986476E0,1.4001651E1,2.3395653E0,0E0,0E0,1.9829048E1,1.1366702E1,0E0,0E0,0E0,0E0,0E0,0E0,0E0,0E0],"parents":[2147483647,0,0,1,1,2,2,3,3,5,5,6,6,7,7,8,8,10,10,12,12,13,13,14,14,20,20,21,21,22,22,25,25,26,26],"right_children":[2,4,6,8,-1,10,12,14,16,-1,18,-1,20,22,24,-1,-1,-1,-1,-1,26,28,30,-1,-1,32,34,-1,-1,-1,-1,-1,-1,-1,-1],"split_conditions":[2.02401E5,2.02312E5,2.02404E5,2.0231E5,-2.4813686E-1,2.02402E5,2.02405E5,2.02308E5,2.02311E5,3.577921E-2,2.02403E5,-9.687935E-2,2.02406E5,2.02305E5,2.02309E5,1.22078985E-1,7.8650445E-2,8.323341E-2,7.150074E-2,1.1697497E-1,2.02409E5,2.02304E5,2.02307E5,-1.5921374E-1,-1.8893462E-2,2.02408E5,2.02411E5,-1.8351375E-3,-9.297076E-2,6.530629E-2,2.0333655E-2,9.47335E-3,-1.1633091E-1,6.556454E-2,-1.8123031E-3],"split_indices":[0,0,0,0,0,0,0,0,0,0,0,0,0,0,0,0,0,0,0,0,0,0,0,0,0,0,0,0,0,0,0,0,0,0,0],"split_type":[0,0,0,0,0,0,0,0,0,0,0,0,0,0,0,0,0,0,0,0,0,0,0,0,0,0,0,0,0,0,0,0,0,0,0],"sum_hessian":[7.68E3,5.268E3,2.412E3,5.103E3,1.65E2,4.73E2,1.939E3,4.789E3,3.14E2,1.59E2,3.14E2,1.65E2,1.774E3,4.462E3,3.27E2,1.49E2,1.65E2,1.6E2,1.54E2,1.65E2,1.609E3,3.976E3,4.86E2,1.63E2,1.64E2,4.98E2,1.111E3,3.819E3,1.57E2,3.33E2,1.53E2,3.27E2,1.71E2,3.13E2,7.98E2],"tree_param":{"num_deleted":"0","num_feature":"1","num_nodes":"35","size_leaf_vector":"1"}},{"base_weights":[-1.8079709E-5,-5.945007E-2,4.4121863E-3,7.997871E-2,-1.5106429E-3,-1.0494638E-1,5.7954295E-3,1.12316065E-1,-2.582472E-3,-1.3848549E-1,8.228167E-3,1.1960366E-1,-2.1387078E-4],"categories":[],"categories_nodes":[],"categories_segments":[],"categories_sizes":[],"default_left":[0,0,0,0,0,0,0,0,0,0,0,0,0],"id":43,"left_children":[1,-1,3,-1,5,-1,7,-1,9,-1,11,-1,-1],"loss_changes":[6.7436547E0,0E0,1.1668653E1,0E0,1.8703636E1,0E0,2.2231646E1,0E0,3.4939594E1,0E0,2.4015198E1,0E0,0E0],"parents":[2147483647,0,0,2,2,4,4,6,6,8,8,10,10],"right_children":[2,-1,4,-1,6,-1,8,-1,10,-1,12,-1,-1],"split_conditions":[2.02105E5,-5.945007E-2,2.02106E5,7.997871E-2,2.02107E5,-1.0494638E-1,2.02108E5,1.12316065E-1,2.02109E5,-1.3848549E-1,2.0211E5,1.1960366E-1,-2.1387078E-4],"split_indices":[0,0,0,0,0,0,0,0,0,0,0,0,0],"split_type":[0,0,0,0,0,0,0,0,0,0,0,0,0],"sum_hessian":[7.68E3,1.67E2,7.513E3,1.65E2,7.348E3,1.5E2,7.198E3,1.59E2,7.039E3,1.61E2,6.878E3,1.53E2,6.725E3],"tree_param":{"num_deleted":"0","num_feature":"1","num_nodes":"13","size_leaf_vector":"1"}},{"base_weights":[-1.1786277E-5,-4.2587563E-2,1.7336791E-2,9.0436805E-3,-3.464886E-1,1.5406463E-1,-1.2119674E-3,-3.2178935E-2,1.4118785E-1,-1.2961717E-1,-7.857949E-2,4.1811164E-2,2.7329043E-1,-1.5650992E-1,9.787134E-3,1.0072343E-2,-1.3986163E-1,2.6945295E-3,2.122167E-2,1.0457881E-1,6.0410824E-2,-3.1403024E-2,-6.192155E-2,1.252432E-1,-4.691555E-3,-3.568308E-2,1.16559245E-1,-2.7461138E-1,1.687901E-2,1.0261136E-3,-8.0730975E-2,7.854408E-2,-5.3226948E-2,-1.8258529E-2,-1.4925107E-1,9.758401E-2,1.3251654E-3],"categories":[],"categories_nodes":[],"categories_segments":[],"categories_sizes":[],"default_left":[0,0,0,0,0,0,0,0,0,0,0,0,0,0,0,0,0,0,0,0,0,0,0,0,0,0,0,0,0,0,0,0,0,0,0,0,0],"id":44,"left_children":[1,3,5,7,9,11,13,15,-1,-1,-1,17,19,21,23,25,-1,-1,-1,-1,-1,-1,-1,-1,27,29,31,33,35,-1,-1,-1,-1,-1,-1,-1,-1],"loss_changes":[5.674149E0,3.4899445E1,1.3842393E1,3.620571E1,2.2238731E0,8.71462E0,8.212551E0,3.2041485E1,0E0,0E0,0E0,3.1940675E-1,1.6412792E0,8.008156E-1,2.6505615E1,7.7658186E0,0E0,0E0,0E0,0E0,0E0,0E0,0E0,0E0,2.525605E1,1.0178123E1,2.0500813E1,1.5263166E1,1.5436815E1,0E0,0E0,0E0,0E0,0E0,0E0,0E0,0E0],"parents":[2147483647,0,0,1,1,2,2,3,3,4,4,5,5,6,6,7,7,11,11,12,12,13,13,14,14,15,15,24,24,25,25,26,26,27,27,28,28],"right_children":[2,4,6,8,10,12,14,16,-1,-1,-1,18,20,22,24,26,-1,-1,-1,-1,-1,-1,-1,-1,28,30,32,34,36,-1,-1,-1,-1,-1,-1,-1,-1],"split_conditions":[2.02206E5,2.02204E5,2.0221E5,2.02203E5,2.02205E5,2.02208E5,2.02212E5,2.02202E5,1.4118785E-1,-1.2961717E-1,-7.857949E-2,2.02207E5,2.02209E5,2.02211E5,2.02301E5,2.02111E5,-1.3986163E-1,2.6945295E-3,2.122167E-2,1.0457881E-1,6.0410824E-2,-3.1403024E-2,-6.192155E-2,1.252432E-1,2.02303E5,2.0211E5,2.02201E5,2.02302E5,2.02304E5,1.0261136E-3,-8.0730975E-2,7.854408E-2,-5.3226948E-2,-1.8258529E-2,-1.4925107E-1,9.758401E-2,1.3251654E-3],"split_indices":[0,0,0,0,0,0,0,0,0,0,0,0,0,0,0,0,0,0,0,0,0,0,0,0,0,0,0,0,0,0,0,0,0,0,0,0,0],"split_type":[0,0,0,0,0,0,0,0,0,0,0,0,0,0,0,0,0,0,0,0,0,0,0,0,0,0,0,0,0,0,0,0,0,0,0,0,0],"sum_hessian":[7.68E3,2.223E3,5.457E3,1.901E3,3.22E2,6.51E2,4.806E3,1.746E3,1.55E2,1.58E2,1.64E2,3.36E2,3.15E2,3.17E2,4.489E3,1.592E3,1.54E2,1.58E2,1.78E2,1.52E2,1.63E2,1.57E2,1.6E2,1.53E2,4.336E3,1.114E3,4.78E2,3.2E2,4.016E3,9.55E2,1.59E2,3.2E2,1.58E2,1.64E2,1.56E2,1.55E2,3.861E3],"tree_param":{"num_deleted":"0","num_feature":"1","num_nodes":"37","size_leaf_vector":"1"}},{"base_weights":[-1.779563E-5,-6.780451E-3,1.0077801E-1,6.0014724E-4,-1.6701351E-1,6.770512E-2,3.762429E-2,-7.162918E-3,9.8681964E-2,-3.3041414E-2,-6.77241E-2,8.902802E-3,1.3645936E-2,5.247316E-4,-1.5757915E-1,-6.0377317E-3,7.693726E-2,-8.196158E-2,-8.725152E-3,-1.7523258E-4,-6.058356E-2],"categories":[],"categories_nodes":[],"categories_segments":[],"categories_sizes":[],"default_left":[0,0,0,0,0,0,0,0,0,0,0,0,0,0,0,0,0,0,0,0,0],"id":45,"left_children":[1,3,5,7,9,-1,11,13,-1,-1,-1,-1,-1,15,17,19,-1,-1,-1,-1,-1],"loss_changes":[5.2364173E0,8.513752E0,3.8015385E0,1.7546589E1,1.0340748E0,0E0,1.8772155E-2,7.776519E0,0E0,0E0,0E0,0E0,0E0,1.0748985E1,4.8504286E0,6.6667323E0,0E0,0E0,0E0,0E0,0E0],"parents":[2147483647,0,0,1,1,2,2,3,3,4,4,6,6,7,7,13,13,14,14,15,15],"right_children":[2,4,6,8,10,-1,12,14,-1,-1,-1,-1,-1,16,18,20,-1,-1,-1,-1,-1],"split_conditions":[2.02501E5,2.02411E5,2.02502E5,2.0241E5,2.02412E5,6.770512E-2,2.02503E5,2.02408E5,9.8681964E-2,-3.3041414E-2,-6.77241E-2,8.902802E-3,1.3645936E-2,2.02407E5,2.02409E5,2.02406E5,7.693726E-2,-8.196158E-2,-8.725152E-3,-1.7523258E-4,-6.058356E-2],"split_indices":[0,0,0,0,0,0,0,0,0,0,0,0,0,0,0,0,0,0,0,0,0],"split_type":[0,0,0,0,0,0,0,0,0,0,0,0,0,0,0,0,0,0,0,0,0],"sum_hessian":[7.68E3,7.198E3,4.82E2,6.882E3,3.16E2,1.61E2,3.21E2,6.724E3,1.58E2,1.62E2,1.54E2,1.62E2,1.59E2,6.398E3,3.26E2,6.239E3,1.59E2,1.71E2,1.55E2,6.071E3,1.68E2],"tree_param":{"num_deleted":"0","num_feature":"1","num_nodes":"21","size_leaf_vector":"1"}},{"base_weights":[-4.3843443E-6,-1.5217476E-2,3.3214755E-2,3.1992574E-3,-1.7441545E-1,1.4819854E-1,5.103656E-3,-1.1853572E-2,2.3208769E-1,2.484438E-2,1.8093896E-1,-6.826073E-2,2.685748E-2,2.6662024E-3,-2.0938376E-1,8.543043E-2,5.4926045E-2,5.814847E-2,4.9915027E-2,8.1821755E-2,1.4890209E-3,-9.761441E-3,1.6092882E-1,-1.1201488E-1,-1.3532854E-2,-4.25182E-2,1.8272707E-2,1.3218217E-3,-2.0807892E-2,7.868792E-2,1.4001535E-2,5.400238E-2,-5.7334994E-4],"categories":[],"categories_nodes":[],"categories_segments":[],"categories_sizes":[],"default_left":[0,0,0,0,0,0,0,0,0,0,0,0,0,0,0,0,0,0,0,0,0,0,0,0,0,0,0,0,0,0,0,0,0],"id":46,"left_children":[1,3,5,7,-1,9,11,13,15,-1,17,-1,19,21,23,-1,-1,-1,-1,-1,25,27,29,-1,-1,-1,31,-1,-1,-1,-1,-1,-1],"loss_changes":[3.88222E0,5.494148E1,7.798833E0,1.7588167E1,0E0,9.9970627E-1,9.824058E0,1.3738728E1,7.609978E-1,0E0,2.684784E-2,0E0,1.1071404E1,8.779538E0,8.819753E0,0E0,0E0,0E0,0E0,0E0,3.8725443E0,3.4951046E0,3.751772E0,0E0,0E0,0E0,4.707671E0,0E0,0E0,0E0,0E0,0E0,0E0],"parents":[2147483647,0,0,1,1,2,2,3,3,5,5,6,6,7,7,8,8,10,10,12,12,13,13,14,14,20,20,21,21,22,22,26,26],"right_children":[2,4,6,8,-1,10,12,14,16,-1,18,-1,20,22,24,-1,-1,-1,-1,-1,26,28,30,-1,-1,-1,32,-1,-1,-1,-1,-1,-1],"split_conditions":[2.02401E5,2.02312E5,2.02404E5,2.0231E5,-1.7441545E-1,2.02402E5,2.02405E5,2.02308E5,2.02311E5,2.484438E-2,2.02403E5,-6.826073E-2,2.02406E5,2.02306E5,2.02309E5,8.543043E-2,5.4926045E-2,5.814847E-2,4.9915027E-2,8.1821755E-2,2.02407E5,2.02301E5,2.02307E5,-1.1201488E-1,-1.3532854E-2,-4.25182E-2,2.02408E5,1.3218217E-3,-2.0807892E-2,7.868792E-2,1.4001535E-2,5.400238E-2,-5.7334994E-4],"split_indices":[0,0,0,0,0,0,0,0,0,0,0,0,0,0,0,0,0,0,0,0,0,0,0,0,0,0,0,0,0,0,0,0,0],"split_type":[0,0,0,0,0,0,0,0,0,0,0,0,0,0,0,0,0,0,0,0,0,0,0,0,0,0,0,0,0,0,0,0,0],"sum_hessian":[7.68E3,5.268E3,2.412E3,5.103E3,1.65E2,4.73E2,1.939E3,4.789E3,3.14E2,1.59E2,3.14E2,1.65E2,1.774E3,4.462E3,3.27E2,1.49E2,1.65E2,1.6E2,1.54E2,1.65E2,1.609E3,4.138E3,3.24E2,1.63E2,1.64E2,1.68E2,1.441E3,3.344E3,7.94E2,1.71E2,1.53E2,1.59E2,1.282E3],"tree_param":{"num_deleted":"0","num_feature":"1","num_nodes":"33","size_leaf_vector":"1"}},{"base_weights":[1.1081048E-5,-4.237219E-2,3.1692225E-3,5.548096E-2,-9.3698804E-4,-7.431466E-2,4.239355E-3,7.8188755E-2,-1.5882882E-3,-9.784213E-2,6.055124E-3,8.331275E-2,-4.968839E-5],"categories":[],"categories_nodes":[],"categories_segments":[],"categories_sizes":[],"default_left":[0,0,0,0,0,0,0,0,0,0,0,0,0],"id":47,"left_children":[1,-1,3,-1,5,-1,7,-1,9,-1,11,-1,-1],"loss_changes":[3.4268866E0,0E0,5.6084337E0,0E0,9.38874E0,0E0,1.0756788E1,0E0,1.7466002E1,0E0,1.1624816E1,0E0,0E0],"parents":[2147483647,0,0,2,2,4,4,6,6,8,8,10,10],"right_children":[2,-1,4,-1,6,-1,8,-1,10,-1,12,-1,-1],"split_conditions":[2.02105E5,-4.237219E-2,2.02106E5,5.548096E-2,2.02107E5,-7.431466E-2,2.02108E5,7.8188755E-2,2.02109E5,-9.784213E-2,2.0211E5,8.331275E-2,-4.968839E-5],"split_indices":[0,0,0,0,0,0,0,0,0,0,0,0,0],"split_type":[0,0,0,0,0,0,0,0,0,0,0,0,0],"sum_hessian":[7.68E3,1.67E2,7.513E3,1.65E2,7.348E3,1.5E2,7.198E3,1.59E2,7.039E3,1.61E2,6.878E3,1.53E2,6.725E3],"tree_param":{"num_deleted":"0","num_feature":"1","num_nodes":"13","size_leaf_vector":"1"}},{"base_weights":[1.7674449E-5,-3.1192621E-2,1.2735095E-2,5.006407E-3,-2.4425566E-1,1.07070036E-1,-6.272388E-5,-2.3954298E-2,9.878913E-2,-9.129861E-2,-5.5466034E-2,2.828563E-2,1.9075128E-1,-1.1091858E-1,7.7885515E-3,5.6748423E-3,-9.8493256E-2,1.574592E-3,1.457719E-2,7.309089E-2,4.2075098E-2,-2.2361437E-2,-4.3779664E-2,8.759582E-2,-2.3046471E-3,-2.6504243E-2,8.056838E-2,-1.717564E-1,1.1236881E-2,2.6317104E-4,-5.698288E-2,8.579236E-2,-8.483615E-3,-6.537115E-3,-9.848101E-2,7.476977E-2,4.861422E-4],"categories":[],"categories_nodes":[],"categories_segments":[],"categories_sizes":[],"default_left":[0,0,0,0,0,0,0,0,0,0,0,0,0,0,0,0,0,0,0,0,0,0,0,0,0,0,0,0,0,0,0,0,0,0,0,0,0],"id":48,"left_children":[1,3,5,7,9,11,13,15,-1,-1,-1,17,19,21,23,25,-1,-1,-1,-1,-1,-1,-1,-1,27,29,31,33,35,-1,-1,-1,-1,-1,-1,-1,-1],"loss_changes":[3.0490973E0,1.7154213E1,6.589349E0,1.7870876E1,1.0957012E0,4.2930946E0,4.1846833E0,1.57560005E1,0E0,0E0,0E0,1.5738216E-1,8.0978584E-1,3.9419484E-1,1.2880067E1,3.841274E0,0E0,0E0,0E0,0E0,0E0,0E0,0E0,0E0,9.953764E0,4.990007E0,1.0717503E1,7.5272713E0,9.193156E0,0E0,0E0,0E0,0E0,0E0,0E0,0E0,0E0],"parents":[2147483647,0,0,1,1,2,2,3,3,4,4,5,5,6,6,7,7,11,11,12,12,13,13,14,14,15,15,24,24,25,25,26,26,27,27,28,28],"right_children":[2,4,6,8,10,12,14,16,-1,-1,-1,18,20,22,24,26,-1,-1,-1,-1,-1,-1,-1,-1,28,30,32,34,36,-1,-1,-1,-1,-1,-1,-1,-1],"split_conditions":[2.02206E5,2.02204E5,2.0221E5,2.02203E5,2.02205E5,2.02208E5,2.02212E5,2.02202E5,9.878913E-2,-9.129861E-2,-5.5466034E-2,2.02207E5,2.02209E5,2.02211E5,2.02301E5,2.02111E5,-9.8493256E-2,1.574592E-3,1.457719E-2,7.309089E-2,4.2075098E-2,-2.2361437E-2,-4.3779664E-2,8.759582E-2,2.02303E5,2.0211E5,2.02112E5,2.02302E5,2.02304E5,2.6317104E-4,-5.698288E-2,8.579236E-2,-8.483615E-3,-6.537115E-3,-9.848101E-2,7.476977E-2,4.861422E-4],"split_indices":[0,0,0,0,0,0,0,0,0,0,0,0,0,0,0,0,0,0,0,0,0,0,0,0,0,0,0,0,0,0,0,0,0,0,0,0,0],"split_type":[0,0,0,0,0,0,0,0,0,0,0,0,0,0,0,0,0,0,0,0,0,0,0,0,0,0,0,0,0,0,0,0,0,0,0,0,0],"sum_hessian":[7.68E3,2.223E3,5.457E3,1.901E3,3.22E2,6.51E2,4.806E3,1.746E3,1.55E2,1.58E2,1.64E2,3.36E2,3.15E2,3.17E2,4.489E3,1.592E3,1.54E2,1.58E2,1.78E2,1.52E2,1.63E2,1.57E2,1.6E2,1.53E2,4.336E3,1.114E3,4.78E2,3.2E2,4.016E3,9.55E2,1.59E2,1.65E2,3.13E2,1.64E2,1.56E2,1.55E2,3.861E3],"tree_param":{"num_deleted":"0","num_feature":"1","num_nodes":"37","size_leaf_vector":"1"}},{"base_weights":[1.0485079E-5,-4.7440357E-3,7.0875466E-2,4.300327E-4,-1.17073275E-1,4.7559556E-2,2.6554937E-2,-5.021823E-3,6.930505E-2,-2.3141583E-2,-4.7494136E-2,6.2905718E-3,9.624023E-3,3.6551466E-4,-1.1043023E-1,-1.0468077E-2,5.0835744E-2,-5.7469517E-2,-6.079806E-3,7.433664E-4,-1.2253634E-1,3.107836E-2,3.8258748E-3],"categories":[],"categories_nodes":[],"categories_segments":[],"categories_sizes":[],"default_left":[0,0,0,0,0,0,0,0,0,0,0,0,0,0,0,0,0,0,0,0,0,0,0],"id":49,"left_children":[1,3,5,7,9,-1,11,13,-1,-1,-1,-1,-1,15,17,19,21,-1,-1,-1,-1,-1,-1],"loss_changes":[2.5882878E0,4.184103E0,1.8722343E0,8.653957E0,5.098634E-1,0E0,9.265989E-3,3.818971E0,0E0,0E0,0E0,0E0,0E0,3.4993377E0,2.3882725E0,2.7148573E1,2.2710888E0,0E0,0E0,0E0,0E0,0E0,0E0],"parents":[2147483647,0,0,1,1,2,2,3,3,4,4,6,6,7,7,13,13,14,14,15,15,16,16],"right_children":[2,4,6,8,10,-1,12,14,-1,-1,-1,-1,-1,16,18,20,22,-1,-1,-1,-1,-1,-1],"split_conditions":[2.02501E5,2.02411E5,2.02502E5,2.0241E5,2.02412E5,4.7559556E-2,2.02503E5,2.02408E5,6.930505E-2,-2.3141583E-2,-4.7494136E-2,6.2905718E-3,9.624023E-3,2.02401E5,2.02409E5,2.02312E5,2.02404E5,-5.7469517E-2,-6.079806E-3,7.433664E-4,-1.2253634E-1,3.107836E-2,3.8258748E-3],"split_indices":[0,0,0,0,0,0,0,0,0,0,0,0,0,0,0,0,0,0,0,0,0,0,0],"split_type":[0,0,0,0,0,0,0,0,0,0,0,0,0,0,0,0,0,0,0,0,0,0,0],"sum_hessian":[7.68E3,7.198E3,4.82E2,6.882E3,3.16E2,1.61E2,3.21E2,6.724E3,1.58E2,1.62E2,1.54E2,1.62E2,1.59E2,6.398E3,3.26E2,5.268E3,1.13E3,1.71E2,1.55E2,5.103E3,1.65E2,4.73E2,6.57E2],"tree_param":{"num_deleted":"0","num_feature":"1","num_nodes":"23","size_leaf_vector":"1"}},{"base_weights":[3.6572621E-6,-3.0036354E-2,2.2422743E-3,3.863625E-2,-6.164476E-4,-5.246945E-2,3.0392206E-3,5.457776E-2,-1.0268168E-3,-6.8970524E-2,4.3633217E-3,5.8178376E-2,6.707878E-6],"categories":[],"categories_nodes":[],"categories_segments":[],"categories_sizes":[],"default_left":[0,0,0,0,0,0,0,0,0,0,0,0,0],"id":50,"left_children":[1,-1,3,-1,5,-1,7,-1,9,-1,11,-1,-1],"loss_changes":[1.7218528E0,0E0,2.7183259E0,0E0,4.682698E0,0E0,